svm_type c_svc
kernel_type linear
nr_class 4
total_sv 1771
rho -0.621681 -0.456594 -0.600984 0.138362 -0.160451 -0.24006
label 1 2 4 3
nr_sv 667 531 308 265
SV
0.7538229669115381 0.5359873020210292 0 39:0.041720983 46:0.041456576 59:0.051003729 82:0.035509692 126:0.032237849 137:0.039379154 208:0.070393105 256:0.039800139 298:0.12972487 371:0.052168458 407:0.039657553 471:0.11886836 490:0.042086404 492:0.032027986 561:0.088132929 590:0.024100489 614:0.051813735 642:0.11316122 646:0.046023173 686:0.059434182 741:0.063691519 838:0.064862433 840:0.08380358 932:0.37117607 953:0.098301591 961:0.029768473 973:0.056580608 1057:0.049362103 1099:0.032609728 1137:0.053700011 1150:0.049800636 1151:0.050502517 1213:0.05443117 1249:0.19107456 1355:0.054411724 1361:0.044797624 1370:0.029022673 1391:0.11737996 1413:0.054549006 1429:0.035687745 1467:0.033031232 1496:0.049578628 1558:0.060136063 1583:0.06173481 1738:0.063704035 1743:0.03958712 1769:0.033474024 1837:0.014939272 1864:0.021153448 1991:0.023817218 2048:0.12738304 2115:0.099157256 2135:0.092341103 2181:0.032177374 2209:0.020414064 2318:0.06976961 2633:0.43544936 2829:0.041993611 2864:0.050749542 2937:0.051813735 2963:0.033579462 2984:0.052398541 3039:0.060136063 3082:0.06976961 3118:0.1347657 3124:0.051535336 3129:0.067812902 3168:0.032672241 3311:0.030214641 3414:0.015555418 3423:0.044671451 3477:0.03256371 3607:0.035732829 3695:0.030000466 3708:0.068943955 3777:0.063691519 4018:0.060429282 4024:0.070243635 4076:0.082740366 4162:0.070243635 4198:0.16617531 4260:0.045055549 4289:0.043177721 4313:0.04086897 4328:0.066214154 4332:0.12729212 4381:0.13953922 4438:0.06976961 4499:0.12354452 4505:0.025629936 4517:0.040018461 4519:0.034014369 4669:0.031510331 4727:0.023254921 4887:0.053700011 4898:0.03744256 4941:0.025530531 5052:0.022644852 5060:0.19534446 5158:0.15561057 5171:0.027154732 5206:0.040828128 5345:0.052101264 5400:0.028551887 5404:0.034669928 5449:0.095382411 5450:0.024683226 5456:0.03386699 5520:0.041502737 5681:0.026772333 5807:0.080909291 5821:0.014498989 6055:0.053356091 6067:0.12359973 6085:0.05160602 6106:0.012049902 6107:0.033977292 6138:0.037930108 6146:0.037872228 6345:0.055656719 6362:0.049800636 6424:0.069339856 6486:0.1253174 6491:0.039728556 6554:0.04587823 6629:0.067812902 6636:0.034669928 6717:0.034669928 6768:0.12346962 6796:0.033509029 6810:0.032002302 6818:0.038047028 6875:0.084831678 6878:0.024812372 6967:0.06708835 7095:0.04009246 7107:0.041115996 7141:0.049362103 7275:0.039043142 7276:0.064862433 7280:0.025793797 7334:0.029722802 7478:0.11131344 7485:0.052398541 7486:0.05708182 7522:0.055656719 7543:0.044947593 7552:0.037588422 7553:0.035465738 7615:0.060136063 7630:0.03340443 7631:0.034790879 7646:0.05443117 7658:0.063879121 7661:0.02799219 7686:0.066214154 
0 0.02599006540761284 0.4418912013144269 284:0.39940536 1339:0.22513444 1391:0.047569676 1725:0.10770552 1831:0.22101585 1923:0.20516604 2994:0.1188436 3215:0.11251215 3333:0.13052116 3867:0.22787657 4176:0.091427311 4177:0.23638006 4444:0.18888428 4898:0.16691465 5025:0.063246446 5318:0.23938851 5555:0.29517513 5845:0.13759033 6513:0.1787276 6771:0.30230216 7216:0.21910862 7543:0.30055684 7700:0.18007568 
0.9474783811341336 0.7100233696460877 0 72:0.23385184 92:0.090744491 151:0.14856848 208:0.043555718 226:0.080345918 495:0.32519544 1109:0.085704056 1391:0.079231446 1456:0.07401295 1464:0.048032577 1483:0.11262209 1535:0.12587765 1659:0.1145952 1736:0.082921352 1775:0.30781497 1837:0.055462026 2020:0.072473807 2106:0.060888233 2149:0.051314076 2209:0.037893593 2271:0.087145452 2356:0.085430484 2542:0.079953679 2732:0.068964516 2778:0.081582751 2994:0.049486095 3120:0.10176137 3168:0.12129565 3371:0.080669239 3414:0.057749469 3466:0.050886139 3477:0.030223182 3827:0.056539339 3867:0.047443538 3948:0.051995227 4045:0.19617141 4058:0.044625561 4079:0.060888233 4161:0.07062477 4470:0.086265392 4727:0.086333862 4730:0.1432778 4855:0.05148171 4867:0.049756636 4873:0.088726999 4877:0.072970858 4898:0.034751364 5025:0.10534247 5158:0.048142004 5193:0.059342318 5206:0.037893593 5253:0.066927218 5340:0.082016834 5361:0.061815076 5444:0.090057183 5520:0.038519714 5687:0.055863842 5821:0.080741217 5832:0.052561446 5855:0.13714925 5968:0.077444547 6057:0.10414766 6077:0.10331275 6106:0.089470489 6159:0.16426664 6186:0.16403367 6188:0.16109128 6204:0.05471439 6484:0.055130708 6513:0.074421603 6570:0.1000019 6657:0.031504761 6658:0.048418833 6810:0.089106377 6827:0.08463632 6855:0.27585806 6863:0.077115704 6942:0.18563635 7059:0.082462811 7161:0.095662434 7234:0.1091184 7280:0.095759436 7343:0.19936122 7344:0.066754055 7439:0.065194851 7661:0.051960484 
1 0.8992313703387316 0.3922139531818618 346:0.29032296 873:0.16578851 1226:0.1015479 1227:0.1084738 1233:0.25531606 1391:0.022919922 1542:0.18593851 1609:0.12260542 1725:0.15568334 1837:0.032087898 1860:0.18296075 2042:0.087265969 2077:0.12916559 2231:0.090598367 2480:0.3101732 2525:0.12360627 2887:0.046148204 2994:0.057260973 3237:0.073874565 3612:0.070664191 3866:0.11069219 3898:0.047619153 3975:0.12626225 4179:0.14022039 4388:0.18929975 4672:0.072049167 4788:0.22258031 5394:0.14985738 5395:0.29130918 5450:0.053016832 5469:0.038904349 5669:0.12374725 5707:0.11069219 5950:0.066293482 6106:0.051763705 6570:0.057856718 6575:0.079799694 6603:0.12260542 6636:0.074467159 6657:0.036454549 6778:0.14985738 6818:0.40860398 6825:0.11611053 7280:0.027701107 7652:0.082760203 7687:0.05592936 
1 0.2509717457269394 0.02185270774386087 207:0.072110352 649:0.094088663 655:0.21823136 657:0.118031 953:0.095261214 961:0.057695523 1022:0.111663 1108:0.092298036 1288:0.056830439 1355:0.05272882 1370:0.056250057 1391:0.082726915 1455:0.10407824 1837:0.028954428 1864:0.040998383 1912:0.22936705 2149:0.053577909 2209:0.039565352 2250:0.038272091 2295:0.084740494 2410:0.06943141 2467:0.4056702 2506:0.1352234 2620:0.065150428 3006:0.084740494 3116:0.086824149 3117:0.088918518 3118:0.052239009 3168:0.031661719 3169:0.060330149 3333:0.056746304 3351:0.051239001 3483:0.099882792 3607:0.069255292 3624:0.12833242 3683:0.086579609 3695:0.058145159 3714:0.12677469 3908:0.091307742 4057:0.084523991 4176:0.039749584 4223:0.066811582 4269:0.10619441 4352:0.059129986 4459:0.094861307 4486:0.32361185 4499:0.04788936 4766:0.23038375 4855:0.053752939 4949:0.088918518 4950:0.061454653 5060:0.04732566 5073:0.095670757 5074:0.10097964 5158:0.050265894 5171:0.052629722 5193:0.061960334 5214:0.065852811 5520:0.040219095 5708:0.07443907 5810:0.066887623 5821:0.028101098 5876:0.22156495 6034:0.19864559 6106:0.093417676 6184:0.062778132 6657:0.032894663 6790:0.079209862 6810:0.062025 7001:0.1234432 7191:0.2704468 7207:0.16207099 7280:0.024996018 7441:0.060802999 7462:0.084523991 7653:0.035605831 7712:0.052303508 
0 0 0.01085048569774901 40:0.036280002 229:0.070479862 373:0.045652578 374:0.03072531 389:0.12638017 405:0.088237834 590:0.030984483 617:0.078294081 642:0.07274213 1023:0.1442652 1224:0.028970275 1288:0.075395226 1329:0.24565254 1332:0.047833312 1339:0.12985582 1371:0.076410791 1375:0.039647218 1391:0.054875649 1498:0.048041445 1543:0.11989379 1557:0.076410791 1667:0.050627302 1697:0.043171003 1698:0.16091413 1910:0.065245496 1955:0.065572288 1976:0.053638044 2014:0.063461752 2022:0.085626166 2034:0.080556349 2118:0.059169099 2258:0.052132673 2314:0.069978733 2396:0.043400614 2450:0.15658816 2535:0.038096214 2559:0.087182783 2604:0.14548426 2634:0.13062198 2682:0.095257906 2732:0.14329434 2800:0.085127375 2880:0.049861258 2899:0.073466034 2948:0.0896984 3118:0.034651958 3157:0.056804807 3169:0.36017184 3235:0.077752156 3250:0.043587731 3263:0.0896984 3414:0.019998623 3473:0.077939269 3477:0.020932557 3478:0.039063974 3499:0.0896984 3534:0.19671686 3568:0.066255742 3798:0.13322732 3948:0.072023723 3998:0.038691262 4024:0.045153913 4045:0.10869456 4058:0.092722905 4067:0.050280397 4081:0.066613662 4220:0.060150025 4234:0.046721397 4266:0.070479862 4349:0.066255742 4388:0.056653482 4446:0.0896984 4669:0.040510852 4720:0.044572946 4754:0.12244902 4760:0.17025475 4881:0.06492791 4898:0.024068773 4900:0.054598074 4925:0.085190038 4944:0.087182783 4958:0.043493785 4964:0.040368147 4968:0.049697871 4985:0.079368564 5025:0.18240033 5139:0.074069961 5223:0.037205002 5249:0.16376836 5253:0.046353749 5341:0.073386507 5538:0.051168536 5681:0.10325852 5691:0.060150025 5817:0.037866719 6106:0.046475403 6112:0.12533128 6144:0.040582887 6171:0.035868248 6341:0.085127375 6359:0.070713567 6428:0.072132601 6458:0.058619062 6514:0.073386507 6523:0.062164513 6554:0.058982756 6558:0.049378033 6570:0.10389188 6657:0.065460533 6660:0.039614012 6854:0.062665642 6926:0.067761112 6936:0.039547891 7005:0.052796092 7026:0.15826018 7280:0.033161463 7288:0.062665642 7308:0.030545886 7325:0.07857444 7501:0.066983319 7543:0.11557259 7652:0.049536817 7653:0.04723718 7658:0.041062684 7687:0.066953981 
0.7476348016519656 0.1062934385572413 0 126:0.057154719 256:0.070561958 274:0.13833648 360:0.12369505 441:0.045238251 516:0.070435049 710:0.084121393 793:0.065680835 982:0.075291328 1050:0.23894698 1244:0.04627161 1317:0.14515722 1391:0.075674107 1465:0.09088899 1587:0.12022599 1726:0.049693997 1801:0.053355664 1898:0.2803299 2224:0.070949024 2315:0.10421919 2474:0.038984827 2539:0.062342651 2541:0.075998101 2559:0.12022599 2635:0.058679536 2692:0.063431338 2912:0.19300284 3090:0.12022599 3168:0.028962428 3260:0.097915698 3307:0.080836313 3387:0.060304325 3477:0.05773244 3827:0.10800166 3871:0.047292765 3898:0.078611458 4045:0.074945479 4058:0.042621959 4176:0.036360769 4261:0.057870251 4348:0.048022773 4568:0.068759208 4728:0.24177445 4779:0.5869578 4817:0.24401355 5025:0.075459601 5206:0.036192244 5250:0.054582489 5255:0.05576619 5450:0.043761073 5454:0.057101018 5520:0.036790253 5821:0.077116093 5915:0.06787691 6106:0.085453437 6198:0.054311325 6482:0.056625881 6514:0.10120078 6658:0.046244921 6803:0.096501421 6878:0.043990036 6965:0.058561313 7045:0.092897758 7248:0.059346343 7269:0.084429251 7280:0.068595017 7325:0.054177497 7441:0.11123859 7653:0.065140576 
1 0.3947241302031488 1 440:0.37440864 1271:0.23780725 2097:0.24961826 2209:0.098346953 3686:0.44777694 4183:0.15945277 4223:0.16607247 4234:0.52523071 7197:0.40732862 7627:0.18971332 
1 0 0 256:0.10070263 370:0.14577396 371:0.065998526 441:0.064561855 534:0.3282309 900:0.24767934 1129:0.073809006 1391:0.21599689 1490:0.12658229 1591:0.16411545 1655:0.16753559 1743:0.10016365 1769:0.084696245 1837:0.037799465 2058:0.13974057 2149:0.069944962 2177:0.083408439 2209:0.051651829 2250:0.049963501 2345:0.080592231 2432:0.12717397 2441:0.3282309 2474:0.055637269 2672:0.13416467 2776:0.058134519 2984:0.13257921 3118:0.068197053 3303:0.093472394 3477:0.04119648 3714:0.165502 4059:0.12234335 4162:0.26659652 4318:0.10382172 4359:0.14196112 4471:0.097968473 4499:0.062518667 5060:0.12356553 5083:0.13500201 5149:0.074579846 5158:0.065621188 5206:0.051651829 5463:0.043822176 5520:0.052505279 5573:0.14442888 5681:0.067739574 5821:0.073370918 6098:0.077703163 6106:0.091466276 6636:0.087722131 6723:0.26219906 6810:0.040486241 6886:0.094825678 7280:0.065263672 7308:0.060116067 7325:0.077319517 7581:0.093211368 7630:0.16904031 7631:0.17605633 7653:0.046482748 
0.2579847327290846 0.176684117865553 0.350486947882965 1473:0.43914296 1519:0.39667324 3709:0.80610409 
0.3361990618301265 0.1187477172683181 0 175:0.12787801 303:0.12614681 416:0.13715656 441:0.052854931 710:0.098284756 1129:0.060425307 1244:0.16218682 1278:0.42930964 1306:0.12979176 1391:0.022103804 1400:0.088170939 1580:0.10512303 1751:0.12051321 1837:0.030945333 2121:0.099011406 2250:0.040903679 2265:0.098284756 2286:0.058694108 2855:0.066903891 2887:0.089009978 3124:0.10675073 3148:0.087967989 3206:0.090567248 3371:0.045009832 3469:0.10315746 3477:0.067452743 3512:0.055023548 3686:0.28879342 3898:0.045923562 4031:0.11823977 4045:0.043781955 4090:0.091279647 4145:0.092794176 4176:0.042482764 4179:0.33806879 4499:0.10236446 4633:0.075077544 4635:0.14452136 4727:0.048170439 4941:0.052884157 4971:0.13435659 5060:0.10115954 5086:0.092532822 5215:0.13435659 5223:0.059944407 5323:0.097932049 5463:0.14350381 5469:0.075038137 5720:0.13715656 6106:0.049920537 6171:0.05779064 6339:0.1289569 6343:0.14452136 6431:0.045258002 6618:0.11934094 6657:0.035156499 6660:0.12765157 6745:0.055288718 6810:0.033144919 6972:0.25550406 7280:0.080144233 7392:0.13715656 7441:0.064983812 7541:0.083202448 7604:0.0947372 7653:0.038054087 7687:0.053937864 
0 0 0.1200031171034551 752:0.080988106 808:0.072166785 1111:0.11209042 1346:0.093824159 1391:0.045914675 1628:0.22198549 1726:0.060302891 1837:0.032140281 2250:0.042483166 2253:0.097504021 2360:0.080160032 2428:0.095057619 2535:0.063750509 2887:0.04622354 2963:0.072242702 3169:0.06696827 3243:0.11630008 3333:0.18897029 3466:0.058977103 3477:0.070057417 3565:0.11209042 3803:0.090746266 4179:0.070224649 4355:0.12280557 4577:0.11147183 4669:0.067791183 4754:0.10245358 4838:0.073911873 4925:0.071278846 5146:0.10171367 5255:0.067671404 5444:0.052188197 5545:0.15010202 5821:0.031193059 5853:0.086577227 6106:0.025924104 6138:0.081602663 6325:0.090544497 6345:0.71843768 6409:0.12394927 6575:0.079929965 6657:0.03651406 6660:0.066290405 7005:0.044174701 7095:0.086254737 7131:0.10283471 7247:0.10666323 7280:0.083238985 7438:0.067434102 7517:0.26718603 7653:0.079047075 7712:0.058058458 
0.3939251229004087 0 0 92:0.14657012 350:0.34228613 477:0.26084716 540:0.17254014 544:0.21762619 1343:0.17795773 1467:0.19806888 2535:0.17768669 3168:0.097958115 3414:0.093276701 4085:0.24705164 4855:0.16630609 5025:0.17014872 5171:0.16283097 5206:0.12241114 5456:0.20308044 6184:0.19422911 6600:0.49111266 7308:0.14247078 7318:0.278671 7543:0.13476215 
0.01887294281286513 0 0.8277610064922247 84:0.31482142 1519:0.22753767 2678:0.28150598 2994:0.18177999 3215:0.17209557 4034:0.45149198 4176:0.13984477 4898:0.38296228 4941:0.17408408 6810:0.10910645 6833:0.26577414 6886:0.2555459 7313:0.30545988 7552:0.25630277 
0 0.3274890762652876 0 126:0.11985583 137:0.1464062 371:0.19395505 674:0.2329563 916:0.21630273 1032:0.17977 1391:0.079345877 1708:0.2329563 1825:0.25939368 2037:0.18867972 2727:0.24114948 2728:0.17771029 2880:0.14419092 3168:0.060735418 3258:0.19481047 3414:0.057832875 4045:0.078581896 4183:0.12305343 5025:0.10549462 5171:0.1009575 5208:0.13773545 5456:0.12591275 5469:0.13468195 5821:0.053905219 5845:0.11474984 5882:0.19964915 6005:0.25939368 6098:0.11417619 6105:0.16951711 6204:0.10958682 6660:0.1145575 6715:0.12949892 7046:0.10270964 7093:0.220968 7165:0.21419869 7618:0.20098 7631:0.12934764 7687:0.096810195 
1 0.4101487280849678 0.1006078088041584 208:0.12849766 259:0.11269255 296:0.072521684 346:0.082245734 371:0.047614924 374:0.043625756 524:0.082979002 561:0.08044023 699:0.081317539 857:0.096211552 906:0.077521829 1001:0.086930463 1041:0.12086928 1244:0.047642404 1332:0.06791679 1379:0.10730668 1385:0.076322893 1391:0.077915949 1441:0.11437905 1457:0.047780514 1801:0.054936322 1837:0.027270589 1864:0.11584239 2149:0.050462097 2210:0.12378768 2250:0.036046386 2310:0.14302608 2385:0.056627637 2396:0.061622962 2478:0.11840181 2511:0.10849292 2525:0.052524721 2531:0.052750173 2634:0.061821808 2732:0.067819483 2821:0.10977415 2887:0.078440083 2899:0.052155882 3116:0.08177491 3146:0.11840181 3333:0.053446235 3371:0.039664935 3379:0.22233387 3477:0.02972138 3612:0.060055479 3948:0.051131939 3991:0.11840181 4188:0.10681352 4261:0.11916931 4271:0.20656784 4316:0.10730668 4484:0.10328392 4557:0.16546166 4877:0.071759307 4879:0.11116693 4950:0.057880771 5076:0.053446235 5174:0.12735951 5348:0.052413174 5463:0.0316157 5478:0.38585008 5520:0.037880163 5522:0.12157749 5590:0.10159742 5701:0.047128191 5735:0.093581572 5821:0.026466884 5844:0.059584654 5859:0.11626439 5891:0.10007181 6106:0.021996248 6108:0.21345182 6217:0.092639718 6254:0.096211552 6330:0.065393641 6431:0.1196509 6652:0.049140543 6657:0.061963362 6664:0.22946631 6716:0.12735951 6870:0.091698011 6909:0.10977415 6958:0.080872875 6965:0.060296189 7032:0.098679024 7057:0.087920896 7116:0.066786422 7248:0.061104475 7280:0.047084761 7481:0.15135212 7517:0.056675923 7675:0.059936468 7680:0.08599776 7712:0.049261808 
0.3516912186373455 0.1309803554315254 0.9317465410497688 190:0.35716998 704:0.13645125 722:0.10617802 726:0.12450641 775:0.10558332 962:0.081904709 996:0.25467526 1224:0.059342637 1569:0.16773134 1914:0.12044463 2439:0.12399979 2881:0.07845552 3001:0.10066638 3140:0.25467526 3148:0.11183855 3555:0.14900479 4188:0.077048424 4198:0.1094055 4652:0.11370835 4831:0.11797435 5025:0.14945134 5249:0.16773134 5315:0.15172472 5316:0.14657173 5491:0.18373797 5503:0.080344258 5742:0.17858499 5937:0.14900479 6085:0.067952118 6144:0.083129881 6373:0.16037739 6398:0.14437077 6403:0.14236144 6424:0.091303108 6518:0.073964826 6547:0.12541212 6723:0.27290251 6907:0.16773134 7026:0.10805991 7084:0.18373797 7253:0.18373797 7670:0.16257836 7746:0.12943841 
1 1 1 
0.3184003377698258 0 0 221:0.11761856 296:0.18593734 540:0.13466741 590:0.056397479 910:0.12059768 1099:0.076309923 1376:0.073606943 1391:0.049941906 1845:0.1440891 1881:0.053399398 1940:0.079684054 2880:0.090756695 3168:0.038228105 3579:0.10424446 3598:0.091991348 3609:0.13129465 3708:0.080667768 3993:0.13129465 4223:0.080667768 4605:0.079337718 4742:0.077064417 4956:0.14904433 5025:0.033200227 5158:0.060690637 5255:0.073606943 5322:0.12059768 5469:0.042385777 5520:0.048560213 5538:0.093136182 5681:0.062649854 5684:0.11935367 5696:0.076384136 5862:0.092151037 5910:0.11270959 5922:0.51424003 6073:0.13240411 6106:0.056395876 6181:0.090756695 6184:0.075797813 6198:0.071686637 6298:0.13240411 6339:0.072842137 6359:0.064355873 6467:0.080944445 6657:0.039716752 6660:0.14420963 6717:0.081130991 6810:0.037444243 6905:0.21405168 6949:0.45535314 7087:0.10154056 7238:0.13024212 7318:0.10875122 7521:0.10395746 7543:0.052590861 7661:0.065504437 
0.6074200819318257 0.5141548014109183 0 40:0.043553 62:0.045629334 81:0.073771508 92:0.037724469 126:0.049754828 215:0.092812009 374:0.036884767 429:0.065393726 492:0.049430934 538:0.085238435 544:0.112026 625:0.10219273 627:0.064253386 692:0.10466019 722:0.062225898 786:0.10466019 962:0.048000463 978:0.058361998 1147:0.079121483 1213:0.084007266 1307:0.092812009 1310:0.055718782 1343:0.045803066 1360:0.068563188 1376:0.097092149 1391:0.06587649 1464:0.079872771 1504:0.10219273 1524:0.085898738 1548:0.14206128 1665:0.075410464 1671:0.071258101 1826:0.064253386 1830:0.10010653 1831:0.076518013 1837:0.023056777 1937:0.050826386 2011:0.087046837 2149:0.042664767 2320:0.073498094 2375:0.062583633 2415:0.071489448 2472:0.055289111 2474:0.033937414 2519:0.057672243 2580:0.062951082 2591:0.057926799 2613:0.10010653 2736:0.10768011 2855:0.049848812 2929:0.10010653 3138:0.080870173 3148:0.065543269 3168:0.025212628 3303:0.057015943 3414:0.096030869 3454:0.082689329 3477:0.050257751 3690:0.074626541 3714:0.050476146 3791:0.092812009 3898:0.034216769 4037:0.07585771 4044:0.069336742 4094:0.072709511 4150:0.041883511 4176:0.031653097 4269:0.084563951 4389:0.084608855 4505:0.039556394 4534:0.072709511 4633:0.055938845 4652:0.066639066 4672:0.051770969 4838:0.053022859 4855:0.042804146 4864:0.12933967 4898:0.028893804 5025:0.021896585 5076:0.0451878 5183:0.063075816 5184:0.098299381 5218:0.088918657 5282:0.082348024 5400:0.044066038 5413:0.15442438 5449:0.049070018 5450:0.038095274 5469:0.11181897 5495:0.20021306 5497:0.059371746 5520:0.06405395 5522:0.051395758 5589:0.064811549 5625:0.18145161 5654:0.073230095 5683:0.073771508 5778:0.076518013 5807:0.04162424 5821:0.04475452 5941:0.46406005 5992:0.08979209 5993:0.088098192 6061:0.083431284 6106:0.074389678 6171:0.043058702 6234:0.051448727 6239:0.098299381 6309:0.07585771 6636:0.053508419 6829:0.17958418 6875:0.043642134 6965:0.050979309 6969:0.21536021 6975:0.070586879 7046:0.042637063 7100:0.064390784 7280:0.039809292 7360:0.068944439 7581:0.056856723 7582:0.081837265 7653:0.056706747 7725:0.15202552 
0.2558595388641592 0.1470587467273813 0.2701471969445161 41:0.10831648 49:0.072177147 62:0.047223392 92:0.039042371 248:0.1114419 273:0.085224847 274:0.041544319 359:0.070958438 503:0.056860553 548:0.0972731 639:0.10173346 870:0.066929072 1095:0.088216234 1498:0.059687019 1743:0.063231886 1845:0.049175584 1864:0.033788071 1948:0.1114419 2014:0.078845312 2022:0.053191266 2174:0.0972731 2185:0.080283119 2208:0.072828721 2462:0.12025779 2478:0.10360375 2503:0.0972731 2525:0.045960091 2539:0.056167029 2580:0.065150274 2599:0.10576283 2776:0.036699494 2850:0.10008376 3118:0.043051828 3146:0.10360375 3168:0.026093429 3189:0.066217938 3201:0.10360375 3217:0.14351803 3235:0.096599808 3273:0.0972731 3371:0.034707544 3443:0.10831648 3497:0.089618035 3512:0.042429223 3587:0.10360375 3686:0.074230522 3898:0.10623639 3932:0.083220531 3998:0.048070287 4058:0.038399856 4109:0.060678233 4162:0.11219906 4176:0.032758896 4222:0.4378233 4332:0.050830426 4360:0.076637511 4480:0.071966522 4498:0.075516408 4505:0.040938294 4568:0.061947967 4888:0.056032352 5025:0.045323082 5052:0.036170267 5110:0.056303014 5149:0.047081195 5270:0.090375317 5284:0.053523447 5285:0.11315802 5311:0.10831648 5320:0.093895307 5413:0.079909595 5429:0.056719073 5463:0.055328631 5523:0.10173346 5681:0.042763028 5714:0.092025024 5719:0.069308732 5852:0.10576283 6085:0.041214743 6098:0.0490529 6232:0.44449802 6431:0.03489891 6592:0.074987805 6657:0.027109537 6670:0.075249613 6671:0.057665314 6761:0.079545774 6796:0.053523447 6825:0.086345951 6835:0.057075488 6870:0.040118718 6925:0.055061549 6968:0.075516408 6986:0.067075736 7027:0.084186868 7521:0.070958438 7543:0.10769113 7630:0.21342549 7653:0.029343897 7680:0.075249613 
1 1 1 
0.03679920018477435 0 0 62:0.078483393 92:0.064886863 495:0.37204968 774:0.14951949 775:0.10643036 942:0.11892079 976:0.10115726 1002:0.24357879 1067:0.070984231 1161:0.1114772 1211:0.10195727 1314:0.088220608 1343:0.078782216 1391:0.11330892 1464:0.068691405 1837:0.11897439 1864:0.056154426 1940:0.090394165 2209:0.054191639 2273:0.12550526 2360:0.098910057 2382:0.097524056 2804:0.16907696 2938:0.057658267 2963:0.089140805 3168:0.086732476 3311:0.080208474 3414:0.082587534 3421:0.1477476 3486:0.15309438 3612:0.17467082 3898:0.058853546 4066:0.12595727 4176:0.054443977 4214:0.10295505 4249:0.11490272 4332:0.084478139 4348:0.071905816 4505:0.068037811 4551:0.12462674 4742:0.087422429 4764:0.11697984 4925:0.087951496 5025:0.075325153 5163:0.13047682 5206:0.054191639 5457:0.05302903 5463:0.045976988 5734:0.082210677 5821:0.076978694 6106:0.063975888 6135:0.077781493 6171:0.074061853 6359:0.073005766 6424:0.09203558 6657:0.045054969 6660:0.081796222 6728:0.17218529 6863:0.11028319 6867:0.12550526 6942:0.17698574 7046:0.073336625 7063:0.13342734 7280:0.1027092 7285:0.090996214 7344:0.19092999 7433:0.086650714 7449:0.11075347 7543:0.1193189 7645:0.1515307 7661:0.22292612 7700:0.10723313 
0 0.582299092347896 0 226:0.079600677 240:0.076726217 371:0.14390918 544:0.066743491 590:0.088643134 819:0.087904021 827:0.10081749 1211:0.070632509 1288:0.053924323 1370:0.053373621 1391:0.039248271 1408:0.081475501 1456:0.1466529 1507:0.12830854 1665:0.044928477 1837:0.027473797 1881:0.04196544 2090:0.11713073 2114:0.088576041 2209:0.037542114 2226:0.088576041 2250:0.036314986 2271:0.086337142 2324:0.083101094 2474:0.040438853 2484:0.089277289 2766:0.11353228 2776:0.04225393 2839:0.095287111 2887:0.079024582 2994:0.049027092 3030:0.064131547 3219:0.092433898 3362:0.062417423 3429:0.07332645 3456:0.064903281 3477:0.02994285 3500:0.099414334 3526:0.060204895 3602:0.23426147 4051:0.081256094 4099:0.089277289 4179:0.060028651 4383:0.053296462 4406:0.089277289 4855:0.051004197 4950:0.058312072 5076:0.053844491 5193:0.058791894 5206:0.037542114 5240:0.35710916 5323:0.086945749 5453:0.069861829 5463:0.031851285 5469:0.033310071 5485:0.071323736 5520:0.076324855 5675:0.072546 5687:0.055345682 5748:0.25232792 5807:0.049598255 5821:0.026664103 5874:0.32080689 5894:0.21398738 6085:0.18981023 6106:0.044320307 6406:0.10010066 6431:0.24108497 6505:0.1119953 6657:0.062425083 6739:0.31492586 6810:0.029426626 6875:0.05200272 6965:0.060745488 7005:0.075521852 7280:0.071153421 7281:0.11353228 7439:0.064590142 7653:0.10135521 7687:0.047886959 7712:0.049628884 
0.7874609040241467 0 0 268:0.23579222 775:0.15313063 904:0.10727338 1391:0.040756852 1738:0.24331355 1766:0.14335396 1845:0.11758899 1955:0.19480553 2209:0.077970232 2474:0.083986392 3168:0.062394784 3237:0.13136584 3401:0.1386178 3770:0.142724 4445:0.22452309 4505:0.097891925 4898:0.071504751 5025:0.054188429 5052:0.086490586 5190:0.17993738 5206:0.077970232 5223:0.11053054 5245:0.33935259 5246:0.31407991 5348:0.10966669 5520:0.079258545 5589:0.16039195 5681:0.40902096 5821:0.11075595 5845:0.11788494 6106:0.046023841 6715:0.13303699 7280:0.049258891 7325:0.1167165 7687:0.29836551 
0 0 0.876048846285986 260:0.16733741 322:0.17217254 540:0.15812887 674:0.17217254 704:0.14237293 1099:0.089604472 1129:0.080155925 1500:0.11229908 1623:0.24347271 1801:0.082694571 1921:0.090310598 1940:0.093566436 2148:0.13684136 2209:0.056093428 2439:0.064690551 2524:0.12727857 2539:0.096623271 2634:0.093059157 2678:0.11344123 2880:0.10656813 2881:0.16372062 3095:0.11252322 3168:0.13466437 3410:0.086970332 3424:0.1750105 3477:0.089478024 3827:0.083694501 3867:0.070230096 3884:0.16963389 3898:0.060918939 3948:0.076967908 4041:0.083831016 4045:0.058078036 4176:0.056354621 4268:0.104545 4672:0.09217213 4828:0.071427106 4855:0.076207755 4964:0.086278566 5025:0.15593719 5145:0.16152664 5285:0.097331994 5293:0.18713287 5469:0.049770135 5577:0.081299216 5691:0.12855824 5734:0.085095759 5810:0.094829337 5922:0.24153192 6144:0.086737529 6171:0.076660963 6181:0.10656813 6349:0.17217254 6484:0.081609321 6657:0.046636118 6925:0.09472153 6975:0.12567165 7087:0.11923074 7318:0.38309286 7543:0.12350625 7653:0.050479852 7712:0.074152836 
0.1831967618430703 0 0.3146033960267744 117:0.17455193 332:0.38992113 1391:0.13065512 1464:0.15841443 1519:0.20429102 1552:0.35617552 1726:0.17159833 1837:0.091458608 2250:0.24178079 3235:0.1851225 3414:0.095230672 3581:0.25998847 3898:0.1357266 4261:0.19983175 4605:0.20755874 4727:0.14236723 5339:0.23046032 5463:0.106031 5845:0.18895315 6106:0.073769811 6125:0.27503592 6431:0.13375955 6810:0.19591892 7725:0.20101164 
0 0.2932358104562929 0 785:0.29739107 1124:0.31611956 1309:0.35920865 1371:0.32914696 3168:0.090469561 3804:0.38638463 3884:0.34188785 5025:0.15714145 5149:0.16323707 5223:0.16026418 7670:0.34188785 7711:0.32554813 
0.5015370160776572 0 0 62:0.048782909 73:0.094620457 92:0.040331716 126:0.10638706 352:0.10361989 445:0.12801687 539:0.071420066 590:0.079533223 861:0.17393415 904:0.046343129 968:0.10925557 982:0.14014631 1187:0.085494395 1376:0.051901233 1391:0.088036754 1464:0.085393008 1467:0.054502636 1548:0.15187955 1726:0.046249882 1766:0.061930287 1826:0.068694123 1831:0.081806393 1837:0.09860119 1864:0.10471169 1991:0.039299205 2010:0.070730942 2011:0.046531447 2149:0.091226904 2209:0.033683888 2286:0.046754294 2474:0.072565853 2622:0.058665069 2674:0.063888523 2887:0.035451588 3168:0.026955145 3351:0.043622227 3414:0.051333919 3454:0.088404227 3477:0.026865604 3484:0.047511655 3492:0.068548706 3708:0.056879915 3714:0.053964698 3766:0.10509313 3827:0.10051645 4037:0.32440182 4057:0.07195934 4058:0.079335965 4095:0.11189355 4261:0.10771894 4269:0.090408409 4444:0.2796531 4447:0.099226514 4669:0.0519931 4864:0.13827871 4898:0.030890738 5070:0.069598721 5183:0.067435167 5204:0.074128804 5206:0.033683888 5348:0.04737706 5413:0.082548549 5451:0.1209034 5457:0.032961245 5469:0.029886774 5520:0.068480902 5807:0.044501011 5821:0.047847633 5845:0.050927425 5941:0.099226514 5984:0.19326747 6106:0.15906192 6239:0.10509313 6309:0.081100455 6636:0.057206539 6657:0.028004809 6796:0.055291018 6810:0.026402433 6818:0.062778867 6829:0.09599788 6830:0.099226514 6831:0.23487371 6875:0.046658368 6965:0.16350791 6969:0.23024438 7045:0.086459343 7046:0.045583833 7050:0.06307316 7280:0.085121253 7456:0.12884498 7653:0.030312957 7725:0.2708874 7731:0.093359894 7767:0.10048547 
0 0.7500230796174731 0 73:0.068217836 374:0.056860869 513:0.1102068 590:0.114681 664:0.12950403 722:0.095926284 774:0.067003984 840:0.099693812 906:0.10104028 925:0.19221699 1355:0.064728884 1370:0.069051487 1391:0.050776984 1429:0.084909198 1547:0.10719732 1837:0.035543898 1860:0.067555462 1991:0.056666535 2214:0.16599764 2250:0.046982082 2258:0.096477762 2410:0.085232662 2474:0.052317285 2528:0.11848695 2535:0.070501611 2833:0.15432236 2880:0.18454847 2887:0.051118557 2938:0.15502996 3124:0.12261419 3168:0.038867317 3477:0.077476412 3898:0.10549587 3943:0.14907918 4024:0.083562729 4045:0.050288078 4058:0.057198284 4319:0.16876198 4444:0.10080975 4471:0.092122504 4633:0.08623428 4867:0.12754996 4941:0.12148579 4991:0.14140733 4992:0.13707534 5052:0.053877212 5067:0.16134219 5206:0.097139328 5288:0.14907918 5463:0.041207221 5469:0.086189017 5768:0.18344997 5821:0.13798547 5832:0.067370011 5845:0.073433565 5985:0.075508618 6085:0.061391183 6098:0.21919939 6106:0.05733887 6138:0.27073286 6265:0.088018531 6504:0.12396066 6657:0.040380855 6810:0.19035174 7005:0.048852749 7280:0.092053893 7293:0.14907918 7325:0.14541142 7517:0.2954807 7554:0.083363081 7653:0.043709032 7712:0.12841356 
0.2499421439599807 0 0 33:0.1116295 73:0.10465307 124:0.17719089 431:0.068598363 441:0.046567125 540:0.15753591 595:0.060836624 668:0.11113995 817:0.088595445 827:0.30014254 883:0.10617654 1099:0.059512313 1129:0.053236902 1262:0.083466933 1391:0.058422776 1468:0.098001794 1623:0.16170648 1733:0.062075764 1746:0.12083994 1771:0.11435128 1801:0.054922986 1837:0.054527938 1890:0.11435128 1940:0.062143718 1991:0.043466101 2106:0.059862757 2148:0.090885487 2203:0.12375763 2239:0.065377766 2258:0.074003327 2265:0.086592459 2385:0.05661389 2531:0.052737368 2535:0.054078305 2539:0.064173966 2663:0.060525877 2880:0.07077901 3139:0.075189277 3168:0.089439598 3189:0.075657691 3410:0.057762804 3450:0.10728063 3477:0.029714165 3716:0.10417355 3948:0.051119527 4024:0.064096843 4058:0.043873979 4085:0.075189277 4150:0.049526035 4185:0.062008098 4211:0.075977762 4233:0.11837306 4268:0.069435312 4517:0.073033151 4531:0.084534195 4577:0.18911873 4730:0.070432361 4737:0.10079197 5025:0.077676226 5052:0.041326549 5060:0.044562625 5159:0.077862643 5193:0.11668576 5332:0.11837306 5408:0.086592459 5454:0.2938918 5520:0.037870967 5681:0.048859147 5821:0.052920919 5922:0.24062622 6107:0.062008098 6173:0.07614023 6181:0.07077901 6197:0.070205364 6265:0.067514669 6343:0.1273286 6452:0.072766428 6479:0.091301173 6547:0.08690936 6565:0.058944771 6657:0.061948319 6658:0.1428101 6740:0.24887658 6870:0.045837875 7005:0.037472531 7280:0.023536665 7308:0.04336047 7318:0.16962503 7438:0.057203024 7554:0.063943703 7557:0.07750301 7653:0.067054081 7675:0.11984384 7712:0.1969994 
0.3272796887610734 0.904001417824707 0.09568254613854517 1355:0.11017343 1391:0.043213124 1698:0.33790834 2286:0.11474748 3118:0.10915 3477:0.065935342 4045:0.085594093 4176:0.083054164 4494:0.64470192 4605:0.13729675 4727:0.28252085 4754:0.19285073 5245:0.35980418 5246:0.1665042 5681:0.1084178 5821:0.11743082 6106:0.048797536 6491:0.1608856 6657:0.068731254 6745:0.10808991 7005:0.083151055 7280:0.052227551 7629:0.1990421 
0.7299026250863576 0 0.1990203635699173 33:0.1109184 126:0.11691772 183:0.20348269 300:0.20029982 581:0.22724569 717:0.40059964 749:0.22086393 882:0.22724569 975:0.20348269 982:0.15401861 1190:0.14382692 1200:0.21555126 1391:0.077400818 2149:0.10025695 2258:0.14706383 2474:0.079748743 2989:0.24593855 2994:0.096685457 3168:0.059246569 3414:0.056415178 4045:0.076655564 4898:0.06789688 5052:0.082126584 5255:0.1140773 5366:0.22724569 5821:0.052583804 6106:0.08740329 6359:0.099739829 6518:0.20372151 7196:0.41789578 7280:0.093546932 
0.4982707801386038 0 0 40:0.062287886 62:0.065257382 92:0.10790427 284:0.29664083 373:0.078379339 707:0.11042601 873:0.085185816 961:0.065706941 1067:0.059021978 1129:0.064388426 1211:0.084775444 1219:0.14968112 1288:0.064721734 1317:0.060240149 1391:0.070660584 1464:0.057115538 1608:0.12841732 1665:0.053924625 1725:0.053329035 1764:0.10003615 1837:0.065949896 2022:0.073504307 2209:0.045059271 2474:0.048536032 2525:0.063511643 2535:0.065406078 2887:0.047423942 3043:0.11565752 3168:0.036058165 3211:0.10715352 3219:0.11094218 3237:0.07591678 3362:0.074915429 3371:0.047961896 3379:0.13442041 3414:0.068669894 3477:0.035938386 3898:0.048935554 3905:0.069124941 4045:0.093306972 4176:0.13580726 4179:0.072048347 4183:0.073055906 4234:0.16042871 4348:0.059788257 4372:0.077804391 4587:0.11932033 4855:0.061216902 4889:0.067230928 4898:0.041322847 5025:0.062631368 5060:0.1077943 5149:0.065060881 5158:0.057245657 5206:0.045059271 5214:0.074996924 5438:0.1125788 5700:0.067561793 5805:0.27253031 5821:0.032003127 5874:0.57756435 6106:0.053194679 6107:0.074996924 6171:0.06158096 6307:0.13273629 6460:0.10033624 6577:0.14968112 6636:0.076525756 6657:0.074924623 6745:0.058914945 7005:0.045321896 7046:0.060977947 7280:0.056933773 7286:0.12284919 7687:0.11495098 
0.9230650902512167 0.9012432127582084 0.4345192011733305 793:0.15625331 1067:0.11278093 1355:0.1147464 1391:0.090013544 1444:0.16909832 1546:0.18948326 1566:0.22229962 1837:0.063009497 1991:0.10045409 2071:0.23664088 2157:0.13848497 2597:0.21622297 3118:0.1136805 3120:0.23121885 3168:0.068900999 3414:0.065608223 3458:0.20085539 3600:0.17237341 3879:0.21199157 4352:0.12867637 4564:0.21199157 4592:0.15128706 4633:0.15286952 4727:0.19616497 4898:0.078960908 5052:0.09550939 5128:0.27927202 5223:0.12205611 5451:0.15452273 5726:0.18841117 5768:0.21680403 5821:0.061152514 6106:0.050822976 6234:0.14059894 6491:0.16756348 6518:0.11845931 6745:0.1125764 6810:0.13497639 6877:0.11983979 7280:0.054395361 7308:0.10020997 7661:0.11806291 
1 0.6482450412336306 0 29:0.02371984 62:0.021608955 126:0.02356269 208:0.10290084 319:0.040366873 348:0.017207475 358:0.047576776 371:0.095325003 414:0.045797334 472:0.11626848 495:0.025609255 540:0.042061763 583:0.046552223 590:0.035230164 740:0.097678551 940:0.029303637 970:0.05986162 1029:0.050994709 1150:0.036399357 1192:0.050994709 1299:0.070682671 1310:0.026387075 1391:0.062395043 1406:0.10596517 1413:0.039869947 1467:0.024142575 1523:0.029638104 1526:0.027983037 1671:0.033746123 1725:0.017659071 1769:0.048932425 1837:0.010919135 1845:0.090009036 1864:0.030922172 1881:0.016678667 1940:0.024888367 1991:0.052224117 2061:0.031794605 2099:0.048396021 2157:0.023998543 2367:0.082709696 2370:0.026250705 2462:0.11005754 2641:0.032123352 2663:0.024240426 2880:0.028346775 3027:0.049564548 3030:0.025488324 3066:0.081359153 3118:0.019700089 3168:0.011940094 3225:0.048396021 3235:0.022101556 3258:0.076596338 3311:0.044167849 3351:0.038645943 3414:0.011369478 3464:0.13678429 3477:0.011900431 3484:0.12627503 3536:0.049564548 3607:0.052234353 3695:0.021927384 3714:0.023904289 3836:0.049564548 3905:0.022889637 3995:0.032123352 4035:0.049564548 4081:0.15148294 4166:0.049564548 4199:0.021015959 4329:0.03951105 4338:0.047408046 4352:0.20068899 4383:0.021182048 4395:0.35600185 4607:0.027193861 4612:0.37223939 4613:0.04344053 4637:0.079567642 4761:0.13353361 4841:0.023387685 4853:0.099129095 4889:0.066787392 5025:0.010369696 5052:0.016551155 5060:0.017847194 5077:0.10198942 5158:0.018955999 5198:0.036237091 5246:0.030051741 5345:0.076161778 5348:0.18887596 5351:0.049564548 5361:0.024339795 5424:0.070964403 5429:0.025954085 5434:0.073131675 5446:0.030174998 5449:0.069715142 5450:0.018041006 5451:0.026777782 5454:0.023540552 5496:0.052037649 5520:0.015167205 5580:0.10520569 5624:0.037092914 5756:0.035068564 5807:0.11827344 5821:0.010597332 5862:0.028782281 5922:0.16061676 6067:0.12045229 6070:0.027555602 6106:0.044036453 6116:0.34974066 6234:0.19491904 6236:0.13353361 6330:0.026183593 6339:0.091005502 6362:0.072798713 6405:0.048396021 6599:0.050994709 6652:0.039351716 6657:0.012405055 6671:0.026387075 6717:0.050680601 6734:0.030174998 6796:0.048983596 6798:0.02999099 6875:0.12400719 6965:0.024142575 7046:0.020191888 7048:0.10028475 7051:0.019415191 7054:0.03480693 7277:0.11996396 7280:0.0094263616 7308:0.034731468 7318:0.0679343 7397:0.021274489 7653:0.013427476 7658:0.093378683 7740:0.050994709 
0.925891431862046 1 0.07908651789456471 69:0.080295934 82:0.091009992 126:0.041312191 371:0.16713222 379:0.089408431 441:0.03269881 544:0.046508447 650:0.07314927 808:0.042986224 851:0.089408431 940:0.10275545 962:0.15942206 966:0.060161768 1024:0.089408431 1080:0.086900946 1164:0.059358777 1244:0.033445735 1324:0.054421574 1391:0.095721941 1725:0.061922888 1728:0.074555739 1764:0.058078375 1769:0.042896326 1837:0.038288786 1859:0.05237281 1864:0.081323227 1919:0.081619473 1980:0.052796901 2071:0.071899417 2127:0.24985225 2149:0.035425206 2177:0.042244088 2230:0.07132303 2250:0.025305144 2346:0.14379883 2563:0.15232755 2574:0.069274265 2598:0.054421574 2643:0.072506975 2700:0.040308545 2887:0.027533102 2908:0.049376679 2938:0.0556674 3168:0.083737714 3219:0.064410132 3351:0.033878742 3462:0.067147736 3477:0.020864888 3478:0.038937692 3579:0.11417245 3674:0.040560266 3868:0.13674964 4058:0.061615439 4150:0.17388258 4188:0.037492406 4312:0.086900946 4352:0.23457712 4485:0.045561606 4612:0.20081323 4718:0.079111988 4724:0.086900946 5025:0.12726748 5060:0.093873833 5158:0.23264733 5171:0.034798273 5214:0.043541255 5223:0.037084728 5284:0.042941185 5285:0.090785248 5463:0.022194731 5469:0.11605624 5520:0.026592485 5768:0.098808474 5784:0.057407305 5821:0.074320718 5845:0.039552247 5874:0.39120523 6204:0.037772648 6234:0.25631197 6431:0.027998954 6558:0.049218408 6715:0.089271991 6810:0.041010342 6818:0.048756544 6877:0.036411337 6902:0.086900946 7046:0.070804405 7051:0.034040429 7163:0.12344377 7165:0.073830514 7273:0.13590145 7280:0.082635652 7433:0.083658776 7438:0.040167196 7441:0.040202367 7516:0.083119977 7543:0.028799744 7598:0.039686024 7618:0.069274265 7628:0.064410132 7631:0.089167703 7653:0.070626713 7661:0.03587146 7686:0.084852182 
0.9944177256945832 0 0 1391:0.053351373 1456:0.19934977 1832:0.28539223 1837:0.074691941 2149:0.13821161 2494:0.63687753 3168:0.081675773 3477:0.08140446 4087:0.15562994 4970:0.24787848 5206:0.10206428 5463:0.086592849 5821:0.072490659 6106:0.060245946 6162:0.18655654 6878:0.12405452 7161:0.51532289 7280:0.064480679 
0.4666382815705711 0 0 73:0.10115247 229:0.19340193 566:0.17649438 904:0.099084743 1135:0.23923598 1391:0.11293712 1837:0.105408 2015:0.1920268 2250:0.069664384 2472:0.12638182 2474:0.077575349 2481:0.14594916 2789:0.14361331 2938:0.076625431 3168:0.17289576 3191:0.34252786 3410:0.11166133 3477:0.057440478 3648:0.35987038 3658:0.29564922 3674:0.22332265 3932:0.18380716 4252:0.15195546 4266:0.19340193 4348:0.09555983 4430:0.24613902 4898:0.066046486 5025:0.10010399 5171:0.095798715 5821:0.10230147 5874:0.15385393 6106:0.085021286 6657:0.059876175 7280:0.090997496 7437:0.12093017 7439:0.12390566 7613:0.13506729 
0 0 0.0876397548893476 100:0.087537077 137:0.062415454 143:0.10095024 441:0.040443201 596:0.080045841 691:0.083538731 976:0.060397644 1304:0.55291968 1370:0.092001129 1391:0.050739746 1397:0.072049151 1610:0.091316544 1726:0.17770663 1743:0.062745078 1757:0.10748258 1837:0.047357108 1845:0.097593984 1864:0.10058383 1881:0.036168315 1921:0.052093311 1991:0.037749985 2014:0.0782383 2111:0.067623126 2149:0.043815317 2206:0.10748258 2209:0.03235603 2258:0.064271338 2286:0.044911185 2358:0.096319401 2359:0.059401235 2372:0.065708141 2395:0.070031341 2434:0.11058394 2439:0.037315055 2474:0.034852611 2482:0.061169981 2490:0.063783622 2539:0.055734611 2663:0.052566273 2678:0.065435613 2684:0.10095024 2776:0.036416953 2887:0.068108091 3061:0.061987775 3070:0.082124106 3117:0.072716406 3182:0.063546036 3235:0.047928054 3324:0.085681193 3335:0.088215186 3477:0.10322612 3667:0.12335087 3898:0.0351395 3948:0.044396928 4018:0.047889818 4024:0.055667631 4041:0.048355733 4045:0.033500799 4087:0.098674421 4150:0.043012992 4162:0.11133526 4249:0.13720921 4269:0.043422202 4357:0.090473953 4358:0.076340107 4419:0.11058394 4499:0.039163295 4505:0.040623119 4564:0.079665037 4831:0.071003659 4838:0.054452737 4888:0.055600971 4898:0.029672989 4967:0.047928054 5025:0.044974149 5253:0.057146839 5317:0.096524215 5348:0.045509401 5412:0.057989429 5453:0.060211084 5463:0.054902668 5558:0.087537077 5560:0.085681193 5655:0.091316544 5770:0.085681193 5821:0.022980712 5845:0.048919807 5882:0.085113829 5936:0.06947901 5967:0.080045841 6085:0.04089744 6106:0.057296819 6144:0.050032279 6173:0.066127223 6253:0.094202417 6431:0.034630231 6518:0.044516229 6524:0.094202417 6657:0.053801654 6658:0.041343168 6660:0.04883781 6717:0.054951391 6835:0.056636076 6870:0.039809853 6892:0.12023747 6929:0.099313234 6965:0.052354078 6967:0.10633417 7220:0.07663901 7268:0.090473953 7280:0.040882837 7308:0.037658245 7535:0.099313234 7541:0.063664321 7543:0.035620679 7580:0.091316544 7630:0.10589119 7631:0.22057239 7653:0.029117985 7712:0.12831938 
0.4542718373907719 0.05371207827153261 0 73:0.077385796 229:0.049320144 348:0.021180491 358:0.029280864 371:0.046933797 374:0.021500847 469:0.078075255 481:0.052341552 503:0.032026283 901:0.090870038 940:0.036069523 953:0.044218931 962:0.027980401 973:0.050903225 982:0.038206443 996:0.043501259 1225:0.076238543 1262:0.082292923 1286:0.057300617 1317:0.049106506 1391:0.048000855 1401:0.15143007 1413:0.024537739 1464:0.046559388 1473:0.0332357 1496:0.044603835 1665:0.021979111 1689:0.045008485 1766:0.067533311 1859:0.036768117 1962:0.036069523 1991:0.085709451 2141:0.032066431 2157:0.029539541 2349:0.07135651 2370:0.064623406 2462:0.033867153 2474:0.019782777 2539:0.063271323 2556:0.042687243 2694:0.17190185 2757:0.079933625 2791:0.25789052 2887:0.019329501 2951:0.12553765 3118:0.072745866 3124:0.046364204 3168:0.02939386 3169:0.028004417 3384:0.044603835 3389:0.1078108 3390:0.076238543 3401:0.032651065 3412:0.061008454 3414:0.055978257 3444:0.045885939 3454:0.024100607 3473:0.027270031 3477:0.029296218 3575:0.027182859 3667:0.035007748 3708:0.031013008 3714:0.029423525 3854:0.046614668 3867:0.045988415 3916:0.076412887 3995:0.039540279 4045:0.019015472 4079:0.029510377 4090:0.03964477 4176:0.018451204 4199:0.077604935 4214:0.034891732 4230:0.049320144 4252:0.038750725 4261:0.029366151 4266:0.049320144 4332:0.028629859 4352:0.24702586 4372:0.063424507 4612:0.14098011 4633:0.065215676 4888:0.031559805 4898:0.033685518 4941:0.022968759 4950:0.057052792 4952:0.050476692 4964:0.028248676 4992:0.05183241 5023:0.10180645 5025:0.025527889 5060:0.15377539 5088:0.072545367 5158:0.093330918 5193:0.028761126 5285:0.031867706 5323:0.042534055 5400:0.025686949 5464:0.034498606 5520:0.03733829 5687:0.081225695 5701:0.023227013 5710:0.037142071 5807:0.024263578 5821:0.052176556 5845:0.027767493 5876:0.10284737 5952:0.062768823 5985:0.028552135 6030:0.05835404 6064:0.088437863 6106:0.010840797 6143:0.040534608 6234:0.20993323 6236:0.05478835 6339:0.25203975 6570:0.04846739 6573:0.040189051 6671:0.03247956 6810:0.071977857 6874:0.25557277 6875:0.025439847 6878:0.022322662 6903:0.054101921 6918:0.053470468 6965:0.029716829 7005:0.22167275 7068:0.043165508 7280:0.023205609 7307:0.045008485 7308:0.02137529 7397:0.026186533 7433:0.029366151 7510:0.46649169 7581:0.033142887 7604:0.041146462 7627:0.035427791 7658:0.086204092 7675:0.029539541 7681:0.061008454 7687:0.023426408 
1 0.379039330927591 0.18026959191251 104:0.1294508 126:0.11184192 274:0.090233539 442:0.20393898 618:0.16461105 925:0.28028169 1317:0.094682544 1391:0.074040586 1837:0.051828423 1896:0.19803246 1899:0.20862847 2010:0.14871517 2887:0.074538652 3168:0.056674475 3261:0.20862847 3389:0.13858042 3401:0.12590942 3414:0.053966004 3458:0.16521348 3783:0.22502554 3871:0.092543782 4176:0.071151752 4185:0.11787653 4199:0.09975369 4482:0.48409976 5025:0.049220473 5199:0.18630004 5457:0.069302586 6106:0.083608817 6171:0.096789965 6570:0.37380105 6657:0.11776289 6810:0.055512373 6972:0.14264265 7280:0.13422861 
0 0.9981146642542705 0 277:0.19051978 469:0.099914464 502:0.081067355 808:0.077239553 904:0.064671846 1314:0.076522627 1317:0.062842577 1391:0.024571061 1464:0.05958298 1872:0.077158626 1881:0.10508849 1902:0.13143785 1959:0.11178264 2250:0.045469405 2286:0.065245627 2757:0.10229266 2791:0.094293615 2880:0.089303292 2889:0.39085125 2899:0.065790144 2938:0.10002565 3061:0.090053985 3168:0.03761591 3303:0.085064778 3371:0.050033893 3414:0.035818247 3454:0.061684058 3464:0.10773084 3477:0.11247287 3530:0.07089081 3667:0.089600228 3867:0.11770459 3935:0.11519652 4045:0.048668958 4085:0.094867814 4128:0.14215193 4234:0.33471875 4505:0.059016052 4566:0.088297111 4873:0.33018959 4889:0.070135364 4961:0.10925544 5025:0.032668549 5088:0.092837756 5208:0.085305154 5328:0.12285891 5444:0.055856625 5463:0.039880477 5464:0.088297111 5469:0.083413999 5569:0.092147388 5807:0.06210117 5821:0.033385691 5836:0.085671169 5950:0.071069232 6496:0.10229266 6497:0.097563987 6657:0.078161433 6717:0.079831737 6874:0.081765395 6878:0.057133512 7005:0.094559684 7046:0.063612248 7285:0.078930189 7326:0.31692066 7327:0.12209688 7441:0.14447479 7619:0.17012956 7653:0.042301737 
1 0.5997349911189065 0.7843551369850903 39:0.070115594 40:0.04742518 126:0.054178396 168:0.066295539 208:0.07886766 348:0.039565661 374:0.080328184 502:0.23667013 528:0.062527655 848:0.11725365 961:0.050028404 1289:0.11725365 1375:0.051826802 1380:0.19553575 1391:0.053800043 1413:0.22918539 1714:0.074255184 1837:0.025106693 1864:0.28440108 2073:0.10703891 2181:0.054076763 2342:0.32377782 2396:0.056733237 2650:0.075941221 2678:0.069382271 2779:0.10703891 2923:0.11725365 3030:0.058606064 3118:0.18118801 3168:0.027454214 3289:0.074865067 3312:0.10530317 3414:0.026142178 3484:0.048391324 3552:0.075941221 3575:0.050778226 3689:0.080944454 4058:0.040402428 4094:0.079173917 4176:0.034467288 4352:0.10254448 4499:0.041525375 4505:0.043073246 4888:0.058954466 4898:0.062925348 5006:0.057226563 5025:0.023843351 5052:0.038056564 5069:0.083694125 5158:0.17434437 5206:0.068615077 5240:0.40792642 5449:0.26716351 5520:0.10462322 5737:0.087560523 5768:0.043193743 5821:0.048733523 5832:0.047587302 6034:0.057415903 6085:0.043364112 6106:0.020250866 6159:0.24786882 6234:0.056022894 6431:0.036718905 6806:0.076862568 6810:0.080673809 6936:0.051696962 7005:0.034507498 7092:0.061320463 7202:0.079740785 7280:0.021674314 7397:0.048917067 7449:0.14023119 7643:0.082255251 
0.7399334294650913 1 0.4508208717115927 66:0.094176682 117:0.15547095 151:0.072737584 352:0.057071448 374:0.086877306 726:0.085932526 1224:0.04095743 1246:0.077547531 1343:0.053941604 1359:0.13725649 1556:0.061556666 1612:0.12325678 1672:0.10684646 1726:0.15284021 1881:0.041476395 1937:0.059857495 1940:0.06189222 2313:0.11220923 2410:0.06511318 2484:0.088236896 2635:0.060158794 2776:0.041761523 2807:0.094699294 2855:0.058706219 2908:0.070033879 3110:0.079470128 3168:0.029692544 3311:0.054918153 3351:0.048052233 3410:0.057529036 3414:0.028273539 3440:0.10471821 3486:0.1048226 3667:0.14145391 3908:0.17125786 3995:0.079884131 4041:0.055452445 4058:0.04369642 4360:0.087208266 4725:0.13623798 4767:0.090517671 4855:0.050409819 4863:0.12325678 5025:0.18051102 5099:0.1138885 5278:0.10471821 5463:0.031480106 5577:0.053777713 5687:0.054700711 5721:0.092704414 5734:0.056289046 5769:0.082623121 5821:0.026353373 5829:0.10574684 5832:0.10293415 5845:0.056099303 6064:0.08933652 6130:0.12325678 6135:0.58582058 6198:0.055680464 6263:0.091356719 6359:0.14995953 6467:0.062871191 6556:0.064383057 6607:0.12325678 6810:0.029083703 6892:0.068941792 7116:0.066499988 7334:0.054024186 7549:0.10574684 7550:0.10684646 7716:0.29281553 
1 0.7286319805437694 0.3780075326870904 62:0.065337817 92:0.027009319 126:0.035622609 274:0.22992123 342:0.094288594 361:0.055281062 371:0.0288229 374:0.026408123 561:0.097386302 595:0.036835378 631:0.044058639 804:0.1389036 808:0.037066091 961:0.032893965 1225:0.046819479 1257:0.087332596 1336:0.046819479 1391:0.03537384 1428:0.058958127 1444:0.044301903 1456:0.044058639 1795:0.069237447 1837:0.016507796 1980:0.13657688 1984:0.056648043 1991:0.026317868 2054:0.061027554 2111:0.047144297 2112:0.052430028 2156:0.039944813 2250:0.021820078 2345:0.14078507 2357:0.16508812 2382:0.040594632 2402:0.066449951 2483:0.077094956 2619:0.48466213 2620:0.074288465 2938:0.024000398 3095:0.045250077 3169:0.034396045 3371:0.048021013 3477:0.017991342 3511:0.046713582 3667:0.042997792 3679:0.2907447 3681:0.061027554 3689:0.053221448 3695:0.033150316 3867:0.028242324 3932:0.057571551 4072:0.074932807 4176:0.022662442 4238:0.059733701 4254:0.1328999 4348:0.029930976 4383:0.064047 4499:0.054606349 4531:0.05118379 4664:0.17370012 4669:0.034818707 4727:0.077089599 4841:0.035358033 4865:0.064287802 4889:0.033656898 4937:0.041785023 5052:0.20017929 5060:0.10792717 5158:0.17194865 5198:0.054784055 5381:0.047595053 5388:0.053221448 5400:0.063099293 5421:0.050079727 5450:0.027274801 5453:0.083953801 5520:0.022930124 5563:0.061500306 5580:0.1060349 5581:0.051018153 5701:0.028528264 5719:0.047947437 5807:0.02980141 5821:0.016021287 5836:0.12333689 5844:0.036068576 5883:0.065674377 6034:0.037751289 6098:0.033934553 6106:0.013315062 6198:0.033850418 6200:0.034047882 6204:0.032570537 6268:0.067293048 6285:0.077094956 6308:0.16741484 6325:0.046505197 6441:0.066880728 6512:0.046608829 6610:0.055029372 6657:0.018754244 6671:0.039892579 6742:0.05790004 6798:0.045341059 6810:0.19449282 6874:0.039237974 6877:0.094190126 6892:0.041912518 6912:0.058240058 6945:0.038443691 6960:0.060699681 7005:0.090755518 7017:0.046608829 7051:0.029352326 7254:0.035825893 7280:0.042752962 7362:0.22215786 7397:0.032163255 7473:0.058240058 7653:0.08119985 
0.1667161840265222 0 0 126:0.076722329 374:0.056876595 461:0.14311683 774:0.067022515 788:0.10326697 961:0.141691 1132:0.16604355 1244:0.062113256 1391:0.10158205 1487:0.12470243 1628:0.081853793 1837:0.071107456 1912:0.093881483 1929:0.29384333 2115:0.11799137 2209:0.048583097 2250:0.14098523 2474:0.052331755 2663:0.078929101 2699:0.089061067 2841:0.13046751 2887:0.051132695 2908:0.091699174 2912:0.38861956 3048:0.16604355 3090:0.16138682 3168:0.038878066 3344:0.16604355 3362:0.080774132 3414:0.037020085 3448:0.15758198 3477:0.07749784 3679:0.089456072 3683:0.10631286 3708:0.082039295 3888:0.12331066 3948:0.066662699 4058:0.057214103 4067:0.093075637 4116:0.10275795 4519:0.080950241 4568:0.092299756 4889:0.072488671 5025:0.033764703 5103:0.15758198 5223:0.068871358 5250:0.073269465 5405:0.14311683 5463:0.041218618 5700:0.072845411 5708:0.091405242 5821:0.034505907 5834:0.11799137 5844:0.077682833 5991:0.1226481 6034:0.081306981 6106:0.14338682 6107:0.080862001 6505:0.14493266 6646:0.14912041 6658:0.06207743 6886:0.089191906 6959:0.085918792 6967:0.079831233 7207:0.29851538 7280:0.061386235 7325:0.072725819 7339:0.11851972 7653:0.043721121 7712:0.064224537 
0 0.2505462398054895 0 1317:0.20842842 3168:0.12475976 3867:0.19519394 4162:0.26822705 4230:0.41867037 4252:0.32894836 5025:0.21670194 5070:0.32213218 6144:0.24107386 7280:0.19698849 7438:0.47875675 7631:0.26569965 
0.6565287681762388 0.3530655458276116 0 352:0.080155878 407:0.10123738 492:0.0817607 561:0.2249848 781:0.29414988 961:0.22797792 966:0.11984596 976:0.097276786 1355:0.069450833 1391:0.027240573 1406:0.09252504 1413:0.069626059 2056:0.13799861 2106:0.083735965 2474:0.056133812 2824:0.14322808 3118:0.068805688 3168:0.041702674 3454:0.13677139 3477:0.041564144 3695:0.076584868 3867:0.13049255 3871:0.068096319 4018:0.23139483 4076:0.21121872 4176:0.10471092 4261:0.083326722 4410:0.17810711 4471:0.098842808 4898:0.095582967 5052:0.057807535 5060:0.18700247 5085:0.2645391 5158:0.13241367 5206:0.052112804 5324:0.11786369 5361:0.085010597 5400:0.072886952 5460:0.23350693 5463:0.088426547 5520:0.10594774 5807:0.068848124 5821:0.037012864 5845:0.078790517 6067:0.21034937 6085:0.065869648 6106:0.03076086 6118:0.15995446 6835:0.091218384 6875:0.072185799 6877:0.072533631 6878:0.12668151 6965:0.084321774 7046:0.070523372 7178:0.092895048 7527:0.31990891 
0.334593936747438 0.2201125576473165 0 238:0.15284782 259:0.18500669 566:0.14992499 618:0.14219284 634:0.14667661 904:0.084168568 1160:0.35527552 1224:0.067529189 1336:0.12697675 1391:0.095935613 1457:0.078440986 1579:0.094766973 1837:0.044769964 1845:0.092262373 1937:0.09869096 2250:0.059177137 2808:0.2032215 2938:0.065090272 3191:0.4364458 3407:0.13836377 3648:0.15284782 3674:0.18970376 3898:0.06643962 3959:0.14168257 4140:0.14378596 4867:0.080328937 4898:0.056103876 5193:0.095804413 5206:0.061176805 5463:0.10380661 5464:0.11491618 5469:0.054280473 5701:0.077370071 5985:0.095108255 6106:0.10833333 6116:0.13036228 6399:0.13171018 6409:0.17265575 6431:0.065476726 6482:0.095716378 6657:0.050862441 6658:0.078169138 6810:0.0959044 6878:0.074357641 6963:0.18021557 7190:0.1028404 7280:0.077298772 7499:0.13276852 7551:0.14992499 7653:0.11010902 7700:0.12105521 7712:0.080872818 7727:0.12939486 
0.2694762667424487 0.2517420559310652 0.07236559354143079 117:0.048526588 277:0.14082108 290:0.076682902 590:0.082036306 591:0.19611191 774:0.047930863 865:0.10115481 998:0.083301687 1244:0.044420027 1314:0.056561052 1324:0.072278506 1332:0.06332312 1378:0.11541509 1391:0.10896895 1467:0.056217951 1511:0.092639867 1519:0.22717699 1550:0.096253615 1665:0.041579828 1726:0.047705466 1864:0.072004795 1881:0.038837635 1991:0.040536036 2001:0.065058208 2052:0.15871885 2149:0.094098012 2250:0.10082498 2472:0.060970629 2531:0.049182324 2851:0.093997551 2899:0.24314114 3168:0.027803482 3333:0.049831306 3414:0.026474754 3477:0.083133369 3481:0.11269408 3561:0.4569773 3867:0.043500175 3890:0.23749066 3941:0.068362921 4075:0.074036328 4150:0.046187468 4261:0.16666363 4505:0.043621216 4867:0.13686305 4967:0.10293055 5025:0.024146682 5093:0.065791476 5106:0.065472797 5153:0.081974214 5171:0.046216363 5253:0.061364431 5348:0.048868118 5453:0.064654826 5456:0.057640383 5463:0.029477317 5469:0.15413688 5653:0.11541509 5675:0.067138938 5771:0.07460675 5788:0.15716119 5816:0.07460675 5845:0.052530222 5853:0.068491027 6032:0.06218465 6106:0.020508493 6130:0.11541509 6134:0.19430235 6244:0.081660008 6370:0.086373871 6429:0.092004697 6810:0.16340025 6872:0.12646479 6878:0.042229752 7051:0.045209854 7342:0.080465432 7397:0.04953938 7619:0.18862473 7653:0.062533942 7687:0.088635612 
0 0 0.3207662066313206 808:0.17435506 1179:0.26646654 1391:0.055464962 1628:0.17877242 1845:0.16002386 2250:0.10263939 2474:0.11429494 2821:0.3125737 2887:0.22335228 3215:0.13118613 3898:0.11523576 4003:0.25657308 4188:0.15207176 4519:0.17679902 4898:0.097308994 5223:0.15041819 5463:0.090023344 5469:0.094146406 6106:0.062632673 6138:0.19715215 6290:0.23418859 6657:0.17643604 6917:0.23487399 7280:0.06703517 7325:0.15883651 7517:0.32276092 7553:0.18434291 7653:0.095488924 7763:0.32568579 
0.2217258395525287 0 0 40:0.10982508 441:0.099305293 904:0.10930631 1045:0.48771263 1071:0.23130708 1326:0.44559997 1391:0.083058466 1542:0.16845354 1801:0.11712433 1837:0.058140941 2177:0.12829401 2209:0.079447841 2250:0.076850954 2474:0.085578014 2887:0.083617194 2938:0.084530102 3168:0.12715445 3867:0.09947029 4261:0.12703458 4680:0.24385631 4898:0.072859834 5025:0.1104307 5454:0.12534599 5534:0.18086433 5821:0.056427441 6106:0.093792073 6276:0.24787586 6636:0.13492908 6886:0.14585535 7280:0.050192394 7383:0.24385631 7438:0.12198655 7725:0.12778465 
0.9214866916736206 0 0 33:0.10882828 92:0.086977399 192:0.43628211 358:0.11581336 374:0.085041385 774:0.10021147 904:0.19988264 978:0.13455921 1391:0.075942297 1429:0.25398119 1698:0.14845916 1726:0.19948045 1837:0.10631924 2146:0.16823314 2732:0.13220316 2776:0.16351602 3237:0.12238707 3486:0.10260745 3871:0.094920742 4041:0.10856121 4045:0.15042217 4234:0.25863058 4568:0.13800578 4742:0.11718513 4898:0.066617449 5206:0.072641019 5339:0.13395331 5589:0.14942927 5821:0.10318586 6106:0.085756285 6200:0.219287 6657:0.060393797 6810:0.056938192 7197:0.30086103 7280:0.091784158 7304:0.19368685 7543:0.23991099 
0.498412381643775 0.2040644596994896 0 311:0.12020377 374:0.062419371 411:0.078355507 503:0.18595179 527:0.13607858 724:0.17711439 775:0.10471388 873:0.10079851 1296:0.10129461 1324:0.11091759 1343:0.077511635 1454:0.14536476 1457:0.068363966 1464:0.067583566 1697:0.087703163 1733:0.088839058 1998:0.12783361 2120:0.12261679 2231:0.11016662 2472:0.093564682 2692:0.093445708 2855:0.084358171 2908:0.1006355 2965:0.11802092 3001:0.099837425 3003:0.15047531 3272:0.17711439 3414:0.040627791 3466:0.07159863 3477:0.042525106 3530:0.16081954 3613:0.15047531 3859:0.18222494 3872:0.18222494 4041:0.079682645 4108:0.14536476 4161:0.099371595 4176:0.053565918 4382:0.17711439 4473:0.15706395 4766:0.15523077 4806:0.17711439 4855:0.07243662 5025:0.037055163 5052:0.059144043 5223:0.075583056 5388:0.12579649 5647:0.10197326 5815:0.18222494 5821:0.0378686 5832:0.073955847 5855:0.096486967 5948:0.14025421 6106:0.03147205 6138:0.099066223 6171:0.072867401 6200:0.080477032 6270:0.16123957 6367:0.18222494 6424:0.090551252 6660:0.080477032 6753:0.14777778 6878:0.12961038 6901:0.16123957 7005:0.053628407 7325:0.079813144 7397:0.076022446 7543:0.11739456 7554:0.091512338 7616:0.13321203 7653:0.047981861 7673:0.17293877 7687:0.068009491 
0 0.6086650584464872 0.2009491331802837 33:0.038235814 46:0.051829193 73:0.035846217 102:0.070737324 126:0.0403039 180:0.069582274 199:0.065893586 208:0.029335256 240:0.052159756 257:0.050993525 274:0.032516997 307:0.061190579 342:0.053339693 499:0.066292278 500:0.045555545 590:0.060261073 684:0.049146677 755:0.058693422 793:0.046316277 982:0.053093326 983:0.082781226 1117:0.082781226 1244:0.032629438 1262:0.11435781 1269:0.15436226 1310:0.045135001 1345:0.068537405 1370:0.036284273 1375:0.038554523 1391:0.12006732 1397:0.056830847 1464:0.03235047 1519:0.041719118 1616:0.07518237 1618:0.05829473 1620:0.087226272 1725:0.030205779 1775:0.051829193 1837:0.074708572 1864:0.026446134 1875:0.051094566 1921:0.041090103 1937:0.041171915 1965:0.041421081 1984:0.12818472 2010:0.053591723 2020:0.048811908 2046:0.057003494 2157:0.041049424 2209:0.025521752 2237:0.067135989 2320:0.059537133 2327:0.087226272 2364:0.061190579 2396:0.042204474 2439:0.029433327 2740:0.067135989 2938:0.054308746 2991:0.079627416 3042:0.10822772 3117:0.057357164 3351:0.066103752 3371:0.027165811 3374:0.058898341 3414:0.019447452 3473:0.037895614 3477:0.040711293 3484:0.035998834 3486:0.036050182 3575:0.037774477 3696:0.07518237 3770:0.093434803 3850:0.082781226 3889:0.24834368 4003:0.061712717 4045:0.026424722 4058:0.030055807 4096:0.069047396 4118:0.051299485 4158:0.087226272 4176:0.025640592 4183:0.082758317 4199:0.035947725 4219:0.13610018 4259:0.04664952 4296:0.081091298 4348:0.033864309 4367:0.07518237 4432:0.059107163 4471:0.048407329 4494:0.29854985 4532:0.07833618 4841:0.040004555 4867:0.033511643 5025:0.035474658 5052:0.056621386 5076:0.036604378 5079:0.052972189 5092:0.069047396 5171:0.033948965 5190:0.11779668 5208:0.046316277 5273:0.076136261 5284:0.041893135 5308:0.12090246 5348:0.035896853 5361:0.041633135 5383:0.058898341 5448:0.049404638 5454:0.040266032 5463:0.021653032 5469:0.022644739 5485:0.048487059 5496:0.044505109 5520:0.025943452 5538:0.049758308 5603:0.077181131 5629:0.07518237 5700:0.038267271 5713:0.053980977 5734:0.038717421 5766:0.065137229 5768:0.096396891 5821:0.054380099 5920:0.06144854 6088:0.099160094 6106:0.04519452 6146:0.33143618 6164:0.086390679 6168:0.04490174 6171:0.034879703 6184:0.040495228 6194:0.050311173 6268:0.076136261 6312:0.070737324 6359:0.034382334 6424:0.043344496 6479:0.062545738 6512:0.052733857 6647:0.061712717 6704:0.044394372 6761:0.12452195 6790:0.20437826 6806:0.11435781 6810:0.040009418 6833:0.048729789 6960:0.034338218 6965:0.04129579 7005:0.025670504 7190:0.085805959 7223:0.30596115 7280:0.032247518 7293:0.07833618 7308:0.029704028 7438:0.03918685 7536:0.064092359 7543:0.084290516 7653:0.068902953 7675:0.041049424 7687:0.065108699 7712:0.033738539 
0.2913777853652276 0 0 168:0.13062237 445:0.085634061 961:0.098571168 1391:0.035334148 1546:0.14876049 1665:0.080895765 1845:0.20388752 1864:0.070044577 2149:0.091536341 2177:0.21831174 2250:0.13077357 3168:0.1081863 3239:0.19465027 3586:0.17064692 3867:0.084631902 4176:0.067911039 4669:0.20867783 5025:0.093957305 5193:0.10585748 5206:0.067596283 5334:0.12267215 5821:0.04800993 5906:0.18152648 6171:0.09238152 6576:0.1496273 6657:0.0561996 6658:0.086371676 6831:0.62845438 6832:0.23102535 7152:0.22454618 7205:0.17781472 7280:0.12811497 7449:0.13814904 
0.01220134281709327 0 0 33:0.056525583 128:0.12237891 208:0.043367521 275:0.10060126 305:0.23161522 561:0.081444908 687:0.085061353 714:0.10984797 976:0.070428749 978:0.069890268 1045:0.11580761 1062:0.12237891 1067:0.049421372 1113:0.16803078 1176:0.098614264 1223:0.2073953 1244:0.096474891 1375:0.056996744 1391:0.0788891 1464:0.047825036 1590:0.2057327 1726:0.051805232 1801:0.11124493 1837:0.027611192 1845:0.05690141 1911:0.10864691 1940:0.062935155 2149:0.10218471 2250:0.036496596 2253:0.083764116 2446:0.19152727 2468:0.10132168 2598:0.078490058 2682:0.068471266 2747:0.11988062 2887:0.03970989 2908:0.14242802 2994:0.049272274 3021:0.096295056 3042:0.079998756 3127:0.071562555 3184:0.11988062 3189:0.076621237 3357:0.062661616 3371:0.04016034 3388:0.11255538 3414:0.028749971 3454:0.049511493 3477:0.030092593 3484:0.053218563 3486:0.053294474 3565:0.19259011 3670:0.09741321 3680:0.076945384 3914:0.073427461 3957:0.050094204 4041:0.11277373 4045:0.039064758 4080:0.062661616 4102:0.11255538 4183:0.061172519 4245:0.10550026 4269:0.1012679 4301:0.092463948 4443:0.082333175 4455:0.1289502 4462:0.082563062 4534:0.08707185 4577:0.095763637 4669:0.058238301 4742:0.060866143 4855:0.051259266 4877:0.072655563 4911:0.1289502 4951:0.1289502 5110:0.065148609 5171:0.050188157 5193:0.059085909 5340:0.081662452 5361:0.061547983 5422:0.10457391 5534:0.085892653 5577:0.054683912 5734:0.057237563 5995:0.15018231 6098:0.056759452 6106:0.066812926 6141:0.096295056 6355:0.1289502 6431:0.040381771 6456:0.10457391 6479:0.092463948 6552:0.11255538 6562:0.092042969 6657:0.031368634 6658:0.096419246 6810:0.029573788 6959:0.066724936 6960:0.050763607 7011:0.11410005 7036:0.17294306 7248:0.061867655 7280:0.071509256 7495:0.11988062 7535:0.11580761 7554:0.064758064 7581:0.068087655 7611:0.11988062 7653:0.033954027 
0 0.0860622914723754 0.2510236892383144 92:0.03999829 104:0.061059553 207:0.060883487 358:0.053259079 411:0.098185071 429:0.13867059 539:0.070829629 540:0.047085384 582:0.098406199 695:0.11096852 745:0.075311972 904:0.045960006 974:0.085744576 1067:0.043756898 1135:0.11096852 1185:0.08624811 1224:0.073748242 1336:0.13867059 1357:0.066355825 1391:0.10477073 1498:0.061148403 1520:0.087874291 1697:0.054949177 1736:0.073100025 1801:0.049247246 1837:0.097786044 2104:0.092588079 2155:0.10835234 2472:0.11724326 2525:0.047085384 2597:0.083890484 2617:0.10614039 2670:0.10614039 2674:0.1267207 2682:0.12124674 2689:0.11417046 2887:0.070317013 2980:0.089070755 3001:0.062551728 3165:0.10835234 3169:0.050937344 3189:0.067839227 3204:0.079762462 3414:0.025454768 3445:0.082641936 3457:0.04352015 3466:0.089718219 3477:0.026643504 3512:0.086936131 3628:0.11096852 3670:0.08624811 3682:0.088460056 3799:0.094278177 3867:0.041824255 3888:0.084787604 3898:0.036279165 4045:0.034587317 4058:0.15736017 4120:0.077928149 4162:0.11494615 4176:0.10068291 4229:0.073944342 4252:0.35241924 4348:0.044324992 4395:0.056931531 4423:0.14201139 4480:0.07372856 4561:0.11417046 4661:0.097257646 4828:0.042537113 4888:0.057404255 4898:0.061270723 4941:0.1253339 5025:0.023216389 5060:0.039957525 5158:0.042439994 5208:0.060623372 5223:0.094710991 5348:0.046985389 5378:0.11096852 5463:0.028341652 5520:0.033957382 5577:0.096832536 5700:0.050088028 5807:0.044133117 5821:0.023726036 5873:0.084332034 6098:0.050253918 6105:0.074611869 6106:0.078873472 6144:0.051654956 6164:0.11307675 6357:0.092588079 6513:0.065606999 6552:0.099654747 6565:0.05285342 6569:0.080092345 6582:0.28283453 6653:0.10835234 6657:0.027773291 6658:0.042684035 6708:0.073306492 6745:0.043677547 6810:0.078552486 6872:0.060796257 6875:0.046272639 6936:0.050337587 7005:0.033600121 7046:0.045206987 7061:0.077092034 7248:0.054776639 7277:0.067145892 7280:0.10552193 7332:0.16692423 7393:0.098406199 7437:0.056092909 7598:0.05067723 7630:0.10932551 7631:0.11386306 7661:0.045806208 7687:0.042610386 7712:0.044160371 
0.2518482579436023 0 0 29:0.11704384 92:0.17631107 495:0.25273404 631:0.14380269 1391:0.038485479 1464:0.093324397 1837:0.053879684 1980:0.14859078 2058:0.39837484 2209:0.073624963 2277:0.1868704 2699:0.13496706 2994:0.096148495 3414:0.056101866 3727:0.21435416 4499:0.17822929 4531:0.33411685 4727:0.08387074 4898:0.067519802 5006:0.12280985 5025:0.051168516 5052:0.081670478 5093:0.13941676 5214:0.12254183 5450:0.089022039 5696:0.11772398 5737:0.37581479 5821:0.10458354 5853:0.1451373 6106:0.043458939 6114:0.25162971 6660:0.11112865 6863:0.14983116 6942:0.12022674 7280:0.046513701 7344:0.1296991 7443:0.13267988 
0.5875236716286738 0.1165573448723887 0.4542423125331023 1:0.10124701 40:0.032504171 117:0.032841251 151:0.046094656 172:0.17624361 208:0.13513538 299:0.050491476 363:0.056143733 371:0.030044722 411:0.10366674 441:0.029390702 516:0.045760733 601:0.078109259 604:0.076267767 611:0.060354463 627:0.047953138 684:0.045279678 694:0.049979962 755:0.054075259 962:0.03582337 1099:0.037561019 1185:0.060708893 1298:0.06314469 1331:0.076267767 1349:0.042315466 1376:0.036230567 1391:0.036873361 1483:0.034941976 1534:0.046010135 1667:0.04535828 1709:0.049733602 1837:0.017207573 1860:0.032705066 1881:0.026284076 1937:0.037932393 1980:0.094910977 2020:0.13491375 2037:0.058455089 2154:0.045597823 2157:0.03781954 2177:0.037970293 2250:0.022745046 2286:0.032637656 2434:0.080363064 2439:0.05423486 2474:0.025327934 2482:0.044453175 2519:0.043041545 2531:0.033285033 2608:0.053180848 2656:0.05789382 2682:0.042671983 2732:0.34234939 2776:0.026464765 2778:0.10124701 3114:0.12539143 3168:0.018816512 3169:0.50195764 3189:0.047751127 3217:0.051746913 3250:0.03905135 3362:0.039093699 3386:0.046010135 3410:0.036456822 3414:0.071669087 3463:0.036198655 3466:0.12630291 3477:0.037508014 3669:0.055264896 3828:0.07217247 3867:0.088318605 3871:0.061450986 3948:0.064527874 3986:0.076267767 4041:0.035140862 4118:0.047263097 4150:0.031258209 4176:0.047246236 4261:0.075195096 4287:0.074710807 4395:0.040073345 4398:0.091034684 4855:0.063890582 4889:0.070167274 4898:0.021563822 5025:0.049025119 5105:0.061076216 5149:0.033951225 5182:0.06636115 5193:0.036822934 5202:0.067013005 5206:0.047027258 5253:0.041529495 5255:0.18115284 5269:0.11634111 5348:0.033072388 5463:0.019949311 5469:0.020862988 5485:0.044671962 5509:0.23432778 5520:0.023902148 5678:0.078109259 5810:0.039751214 5821:0.05010132 5855:0.085103481 5912:0.05789382 5947:0.060012049 6106:0.013879496 6339:0.035854117 6419:0.21332491 6496:0.051169599 6546:0.05874787 6657:0.019549249 6796:0.077193732 6810:0.018430682 6822:0.14434494 6825:0.12453171 6878:0.028579753 6912:0.12141779 6960:0.031636391 6965:0.076093043 7005:0.047301353 7017:0.048584609 7051:0.061193182 7228:0.051746913 7280:0.059420385 7308:0.027366832 7360:0.051454132 7379:0.055916751 7443:0.042374019 7491:0.080363064 7653:0.021160492 
0 0.0882968404194492 0.3514131931302859 540:0.089889992 544:0.11337893 726:0.14769704 1099:0.10187318 1464:0.16167477 1480:0.17004363 1509:0.11524742 2472:0.11191366 2682:0.11573516 3387:0.1062613 3414:0.097190624 3477:0.050864709 3998:0.09401717 4045:0.066030122 4058:0.07510348 4162:0.10972098 4179:0.10197225 4459:0.15290308 4505:0.080068225 4512:0.65388329 4677:0.13177141 4889:0.19030802 4910:0.18364299 5025:0.22161028 5383:0.14717523 7045:0.32738734 7308:0.22267336 7543:0.070208409 7630:0.10435584 
0.2102675934923232 0 0.5060801928269836 284:0.34661687 1244:0.20194043 2254:0.37266767 2994:0.20627262 3169:0.24084828 3414:0.1203584 4395:0.26919074 4898:0.14485392 5206:0.15795166 5555:0.512325 6144:0.24424138 7216:0.38029907 
0.2162655773990996 0 0 540:0.073898521 691:0.13536276 722:0.20709474 774:0.072327272 868:0.12970303 1096:0.13703172 1144:0.13307056 1391:0.05481108 1457:0.067223762 1547:0.11571386 1665:0.062743614 1738:0.16360781 1743:0.10166957 1837:0.038367766 1875:0.10496168 1937:0.084577948 2022:0.085525414 2302:0.10931929 2357:0.12790042 2439:0.060463799 2819:0.096110151 2908:0.098957061 3048:0.17918571 3168:0.041955222 3371:0.055805723 3477:0.041815854 3898:0.056938616 4045:0.054283332 4109:0.097563593 4162:0.2706047 4185:0.087262138 4188:0.075139487 4218:0.090093553 4397:0.13883432 4431:0.14796561 4480:0.11571386 4505:0.06582405 4517:0.10277736 4856:0.091084837 5025:0.10931142 5171:0.069740106 5255:0.080783382 5463:0.044481026 5538:0.10221666 5701:0.06630599 5799:0.15264177 5867:0.13703172 5992:0.14941906 5993:0.29320063 6085:0.066268549 6106:0.061894291 6144:0.081070271 6164:0.17746919 6181:0.099605179 6356:0.14079386 6422:0.13380901 6445:0.30888874 6497:0.10881881 6575:0.095417156 6580:0.1741604 6658:0.066990789 6870:0.064506267 7036:0.1201585 7247:0.12733025 7280:0.033122443 7543:0.0577183 7581:0.094612766 7630:0.085790885 7631:0.089351633 7653:0.094363197 
1 0.2188846417745541 0 1:0.062870853 67:0.067392157 73:0.082031305 81:0.068376489 151:0.057246337 284:0.12816584 296:0.056831628 345:0.06787467 348:0.03367795 441:0.10950359 503:0.15276977 536:0.078421285 631:0.057037269 755:0.067157687 774:0.04028583 793:0.052995616 808:0.047984882 904:0.080354449 906:0.060749993 971:0.14002993 1002:0.065628726 1120:0.08026025 1129:0.083458472 1150:0.07123972 1246:0.061031888 1298:0.15684257 1310:0.051643986 1368:0.075852385 1391:0.030529423 1469:0.058462988 1483:0.043395489 1665:0.034947793 1673:0.069444692 1697:0.04803536 1709:0.18529696 1723:0.089633156 1736:0.12780486 1738:0.091128507 1758:0.081655441 1765:0.075852385 1776:0.070612399 1826:0.059554442 1837:0.021370601 1875:0.058462988 1881:0.065285966 1937:0.047109378 2020:0.055851145 2138:0.075396197 2250:0.028247756 2353:0.087115984 2385:0.044376256 2442:0.087115984 2443:0.056234192 2462:0.053850323 2472:0.051245737 2490:0.057566622 2535:0.042388762 2630:0.078421285 2661:0.092785594 2706:0.079616837 2732:0.053146748 2773:0.097006234 2833:0.092785594 2840:0.046830615 2887:0.061469583 2899:0.081743929 2941:0.067157687 3034:0.080938458 3106:0.082415905 3250:0.048499044 3357:0.048499044 3414:0.044503995 3429:0.057037269 3463:0.044956196 3466:0.039214845 3473:0.086721193 3477:0.046582328 3478:0.17386226 3484:0.041190279 3699:0.085020491 3827:0.043571421 3867:0.036561842 3942:0.07123972 4018:0.043221989 4041:0.043642491 4067:0.055945816 4079:0.093845699 4145:0.12816584 4214:0.05547945 4218:0.050181535 4263:0.061031888 4395:0.04976829 4398:0.056529353 4416:0.085020491 4469:0.099805301 4489:0.13727027 4568:0.05547945 4669:0.045075472 4677:0.060338684 4841:0.045773671 4855:0.039673816 4867:0.038344406 4898:0.026780758 4958:0.048394512 5073:0.070612399 5149:0.042165045 5255:0.22497914 5260:0.079004823 5361:0.047637111 5453:0.0543423 5464:0.054854363 5497:0.055029803 5520:0.029684795 5681:0.038297775 5701:0.073864028 5708:0.054941776 5810:0.049368226 5821:0.020740778 5836:0.053223002 5991:0.073721206 6098:0.043930867 6106:0.017237363 6134:0.081655441 6138:0.054258952 6140:0.17204906 6173:0.059681791 6176:0.069726587 6263:0.14380014 6285:0.099805301 6330:0.10249147 6356:0.078421285 6377:0.099805301 6474:0.072960743 6497:0.060611386 6623:0.062071614 6627:0.088311535 6657:0.024278799 6658:0.074626885 6745:0.038181949 6750:0.069726587 6796:0.047934606 6878:0.035494053 6967:0.047984882 6993:0.088311535 7002:0.17423197 7005:0.029372485 7061:0.067392157 7204:0.097006234 7248:0.047884531 7280:0.05534697 7325:0.043713966 7334:0.12755524 7517:0.088828191 7521:0.063549061 7543:0.032148725 7554:0.05012166 7559:0.14184428 7569:0.17004098 7613:0.054767554 7653:0.1051194 7687:0.03724906 7712:0.038604023 7730:0.092785594 
0.8572744283322327 1 0.3318225900169643 14:0.050434009 81:0.055136291 126:0.037186398 208:0.10826471 296:0.091653877 336:0.069367023 347:0.035692395 412:0.063236045 467:0.078222265 544:0.041863711 770:0.2346668 817:0.16799295 885:0.14963779 962:0.035875198 970:0.0472365 1226:0.054535231 1227:0.058254715 1244:0.090316664 1288:0.033823108 1324:0.048986564 1385:0.048228948 1391:0.049235611 1528:0.064200094 1665:0.056361234 1689:0.057707833 1717:0.080479331 1725:0.083608099 1733:0.039235617 1738:0.036741341 1837:0.034464936 1859:0.094284815 1872:0.038652707 1873:0.048986564 1881:0.026322103 1928:0.052123737 2001:0.044093027 2008:0.080479331 2011:0.032529088 2239:0.041322681 2287:0.064200094 2385:0.071566767 2396:0.038939963 2465:0.22913433 2531:0.066666377 2544:0.078222265 2647:0.047720557 2685:0.067109958 2686:0.056695503 2697:0.044663029 2886:0.070247131 2887:0.024783408 2899:0.065915304 2938:0.025053986 3042:0.099856321 3234:0.073468245 3250:0.078215697 3274:0.076378109 3333:0.067546069 3473:0.034964393 3477:0.037562279 3530:0.14205135 3674:0.073019133 3868:0.061546317 3951:0.049684417 3963:0.1027702 3991:0.074818896 3994:0.069367023 4018:0.034852626 4036:0.043819635 4045:0.024380773 4076:0.047720557 4093:0.042855586 4161:0.087774587 4188:0.03374809 4198:0.047920858 4214:0.044736592 4267:0.069705251 4269:0.063202484 4319:0.040909772 4505:0.029564162 4564:0.11595516 4936:0.24143799 4950:0.036575248 4956:0.073468245 4968:0.044589997 5012:0.11111561 5025:0.016365349 5052:0.078362593 5060:0.02816626 5076:0.033773034 5106:0.044374013 5163:0.056695503 5197:0.061943029 5223:0.10014338 5244:0.078222265 5261:0.062355938 5427:0.099368835 5457:0.069127394 5463:0.039956346 5469:0.18803854 5701:0.05956124 5788:0.37280452 5844:0.037651943 5985:0.036608249 6071:0.11339101 6106:0.027799153 6186:0.050966493 6217:0.05853966 6265:0.042673332 6274:0.13290909 6304:0.058254715 6330:0.041322681 6339:0.03590599 6382:0.045826939 6428:0.19415676 6431:0.025202736 6459:0.038334102 6565:0.037256641 6575:0.042855586 6610:0.057445095 6636:0.039991804 6657:0.019577532 6719:0.045189571 6792:0.070247131 6960:0.031682161 7004:0.057977579 7005:0.023684894 7103:0.11155067 7116:0.12660837 7280:0.014876588 7286:0.064200094 7355:0.080479331 7397:0.10072555 7412:0.042917075 7437:0.039540173 7441:0.03618741 7462:0.15091547 7499:0.051104112 7543:0.025923552 7592:0.052278166 7653:0.063573318 7660:0.044663029 7680:0.16302768 7687:0.030036275 
0 0.453056146354222 0.1340800882348195 289:0.57454371 3997:0.8184739 
0 0 0.01312139478703203 120:0.11578607 126:0.064788611 469:0.087204388 472:0.10656499 536:0.11017403 585:0.13628402 618:0.1907142 774:0.28298774 1073:0.12085583 1129:0.058625388 1317:0.054848399 1344:0.12592559 1391:0.021445387 1452:0.11692342 1473:0.074243724 1481:0.083315545 1665:0.049098141 1726:0.056331394 1837:0.03002355 1894:0.13035445 1909:0.1855785 1928:0.090813434 2010:0.086148816 2022:0.066925359 2149:0.055556236 2181:0.064667074 2209:0.12307882 2258:0.081493732 2283:0.12592559 2418:0.10302861 2616:0.10250252 2682:0.074453521 2748:0.20605723 2757:0.089280052 2791:0.24689569 2830:0.12406884 3063:0.11813927 3118:0.054167898 3235:0.12154208 3252:0.099203333 3454:0.053837255 3486:0.1159015 3511:0.084960313 3948:0.1688811 3963:0.089526528 4018:0.12144511 4024:0.070584541 4045:0.084955601 4058:0.048314778 4064:0.094349809 4067:0.15719651 4116:0.17354908 4150:0.054538918 4176:0.041217309 4568:0.077943058 4742:0.066183947 4797:0.13307101 4828:0.052241202 4925:0.066584482 5025:0.028512797 5171:0.054573037 5282:0.10723008 5456:0.068062707 5520:0.041704157 5590:0.11185366 5734:0.12447669 5821:0.029138711 5918:0.1408318 5933:0.13035445 6171:0.1121384 6182:0.18006014 6391:0.075318616 6459:0.066788216 6621:0.091633246 6657:0.034109275 6658:0.052421641 6810:0.032157615 6874:0.071364054 6878:0.049865582 6963:0.12085583 7005:0.041265393 7322:0.16769385 7433:0.065599713 7543:0.045165732 7551:0.10054242 7628:0.10101238 7653:0.036920551 7661:0.056256083 7687:0.052331191 
0.5357564808499302 1 0.584843843733505 89:0.098961587 120:0.089581607 411:0.046646938 590:0.11241965 594:0.065010703 710:0.073776076 970:0.063672922 1067:0.041577101 1244:0.04058109 1332:0.11570102 1391:0.066367645 1413:0.042408409 1665:0.037986351 1697:0.052211824 1713:0.094690337 1860:0.044148909 1928:0.070260724 2052:0.072500902 2700:0.048908019 2887:0.033407047 2938:0.033771776 2984:0.081473116 3397:0.062109559 3414:0.024186711 3466:0.042624404 3484:0.044771593 3687:0.4888387 3714:0.10170496 3867:0.039740734 3948:0.087106849 4041:0.047437015 4042:0.11570102 4058:0.037380276 4261:0.050753321 4263:0.19901503 4350:0.19197967 4395:0.2163817 4423:0.13493694 4485:0.27640888 4499:0.11525768 4727:0.036158466 5025:0.044119679 5076:0.045524706 5253:0.056061098 5283:0.43393174 5336:0.210881 5432:0.066494168 5449:0.049435869 5454:0.050078689 5469:0.028163164 5497:0.11962881 5520:0.032265758 5601:0.1008529 5718:0.088755025 5727:0.079711389 5755:0.066031939 5821:0.022544098 6183:0.065151994 6265:0.057521953 6334:0.078151469 6509:0.089581607 6540:0.084053323 6657:0.026389734 6660:0.047909933 6916:0.1008529 6965:0.051359395 7220:0.15036587 7437:0.10659716 7543:0.034943916 7653:0.028564768 
0.4898828374922355 0.3136160007341319 0 29:0.059804828 62:0.10896531 73:0.052837908 186:0.10617127 208:0.043240646 255:0.086515061 274:0.047930585 374:0.044041406 590:0.044412903 684:0.14488601 709:0.12496708 711:0.082554031 854:0.093067132 978:0.069685799 1146:0.11376625 1226:0.17424984 1326:0.07033226 1333:0.095483474 1376:0.057965321 1389:0.12202088 1391:0.11798746 1579:0.058275095 1618:0.085927382 1623:0.081643402 1635:0.10721418 1725:0.089047623 1837:0.027530413 2181:0.059297161 2207:0.12857295 2346:0.31018283 2474:0.040522187 2497:0.07112068 2780:0.20513082 2887:0.039593716 2898:0.070778065 2938:0.040025989 3168:0.030104557 3191:0.089461267 3250:0.062478295 3371:0.080085696 3414:0.028665861 3477:0.12001822 3674:0.058327307 3695:0.055285509 3714:0.060269879 3871:0.049157747 3948:0.051619106 4045:0.11685141 4075:0.080163732 4183:0.060993554 4395:0.064113385 4505:0.0472314 4669:0.058067921 4815:0.073883254 4898:0.034499981 5025:0.026145113 5052:0.083460847 5062:0.11376625 5104:0.56113045 5469:0.033378715 5520:0.038241071 5821:0.080157153 6106:0.04441164 6183:0.077217526 6186:0.081423543 6198:0.11290617 6296:0.10256541 6424:0.063890494 6482:0.058858914 6652:0.049608737 6657:0.031276863 6959:0.066529728 6960:0.15184528 7280:0.023766684 7349:0.1992384 7411:0.19096695 7653:0.10156408 
0.2030155163410449 0.1934428900906585 0 33:0.069564725 40:0.064187232 255:0.10678449 722:0.091706844 731:0.15869602 732:0.13518735 1211:0.087360504 1429:0.081174358 1680:0.5471353 2045:0.1385193 2497:0.087783389 2535:0.20220152 2880:0.088215435 2958:0.10872245 3119:0.098697346 3168:0.037157688 3189:0.094295981 3296:0.11132772 3333:0.13319311 3414:0.035381924 3477:0.037034256 3824:0.1385193 4161:0.17308143 4162:0.15977423 4199:0.065401867 4725:0.08524511 4726:0.1475343 5025:0.096811783 5171:0.1235308 5250:0.070027246 5254:0.11601167 5284:0.076218711 5717:0.13518735 6426:0.12214456 6467:0.15735587 6482:0.07264884 6508:0.15869602 6563:0.1475343 6570:0.12253826 6657:0.038604651 6658:0.059330465 6756:0.25523659 6944:0.13136427 6976:0.12659523 7094:0.09996818 7275:0.088806452 7280:0.029334928 7397:0.066206415 7415:0.15118092 7438:0.071295002 7482:0.11179704 7631:0.15826874 
0.4133112379919106 0 0 684:0.31218025 707:0.39729123 1756:0.36905625 2042:0.3226453 3148:0.33724941 3168:0.12973024 3414:0.12353043 3477:0.12929929 5025:0.11266772 5821:0.115141 5845:0.24510449 7162:0.50579424 
0.8119353613015681 1 0 896:0.44201422 1457:0.16582716 1665:0.15477556 1754:0.26966816 1801:0.19066213 1864:0.13401429 1881:0.1445681 3256:0.44201422 3454:0.16971501 3948:0.17745863 4820:0.34989379 5025:0.089882917 5158:0.16430766 5469:0.11475094 5821:0.09185603 6106:0.076340228 6657:0.10752509 6745:0.16909888 6810:0.10137274 6855:0.23537445 6875:0.17914585 7280:0.16341248 
0.2212824629994415 0.2229355106836574 0.2314742782626993 3544:0.87950225 7630:0.47589473 
1 0.9789568360030115 0.9546261309109898 29:0.054975799 33:0.017269775 49:0.076548396 50:0.029761819 62:0.050083372 80:0.027637636 126:0.018203857 189:0.039397045 199:0.029761819 212:0.033560904 226:0.024441331 274:0.044060359 280:0.037389374 310:0.042836249 347:0.034944994 348:0.026588001 352:0.053191105 358:0.018378224 374:0.013495072 402:0.023123683 407:0.022393567 492:0.054256059 531:0.039397045 544:0.020493542 556:0.032232587 590:0.09526234 670:0.031681851 754:0.036626093 758:0.027092964 774:0.015902388 814:0.030128767 906:0.023980392 912:0.031681851 961:0.016809466 962:0.017561985 1096:0.030128767 1106:0.041375488 1166:0.02669663 1283:0.031186285 1288:0.082787126 1314:0.075062768 1317:0.015410925 1370:0.098329994 1376:0.017761608 1380:0.065699708 1391:0.030127884 1413:0.077005936 1486:0.033957237 1579:0.017856529 1610:0.032532772 1628:0.019421396 1694:0.070763405 1725:0.30014358 1733:0.019207011 1773:0.02669663 1837:0.0084358098 1839:0.29430891 1860:0.064133093 1864:0.035834371 1875:0.023077622 1917:0.027637636 1938:0.025668499 1947:0.033560904 2060:0.044319185 2106:0.12965595 2108:0.076584288 2142:0.019784974 2157:0.037081168 2179:0.036626093 2181:0.018169708 2231:0.047636064 2255:0.023508461 2422:0.026509758 2428:0.024949626 2531:0.016317595 2587:0.039397045 2629:0.050309092 2648:0.090223705 2697:0.17491113 2776:0.038922117 2860:0.038292144 2898:0.021687662 2911:0.032532772 3251:0.32368418 3289:0.025154546 3343:0.051336997 3347:0.060257534 3351:0.044785116 3357:0.038288928 3362:0.057495676 3371:0.012269843 3381:0.025516132 3414:0.061486119 3456:0.039857013 3477:0.0091939308 3484:0.048778229 3530:0.034769196 3552:0.025516132 3565:0.088260598 3669:0.027092964 3695:0.016940466 3714:0.036935532 3819:0.028800451 3898:0.087632503 3957:0.015304851 3995:0.024817578 3998:0.06797541 4042:0.04201839 4045:0.011935119 4058:0.013575153 4080:0.019144464 4093:0.020979094 4099:0.027412528 4118:0.023170176 4120:0.026890833 4176:0.011580955 4188:0.016520702 4211:0.023508461 4274:0.029420199 4319:0.040053119 4352:0.05168218 4419:0.039397045 4505:0.014472544 4612:0.02212165 4771:0.3545734 4828:0.014678372 4841:0.018068653 4855:0.015660802 4856:0.02002656 4867:0.015136032 4898:0.021142819 4941:0.014416412 4950:0.089523401 4956:0.035964908 5010:0.033957237 5052:0.012786946 5060:0.12409406 5098:0.074452733 5158:0.014644859 5206:0.01152728 5223:0.11438743 5285:0.2200205 5348:0.12970679 5399:0.085970755 5400:0.016122492 5409:0.038292144 5420:0.022809906 5444:0.041093266 5449:0.10771983 5450:0.041813886 5463:0.08801923 5464:0.021653156 5469:0.010227834 5480:0.031949566 5482:0.069371048 5497:0.02172241 5500:0.025085293 5520:0.011717746 5522:0.018804226 5595:0.031186285 5611:0.028381763 5701:0.029157013 5719:0.024502087 5735:0.057896537 5809:0.043034979 5821:0.0081871939 5844:0.018431755 5915:0.043237779 5985:0.017920835 6013:0.12893035 6067:0.023264494 6085:0.014570274 6106:0.013608519 6107:0.019186074 6116:0.024563597 6184:0.018290273 6197:0.02172241 6234:0.018823605 6316:0.057896537 6330:0.020228691 6339:0.017577058 6441:0.017088686 6442:0.018823605 6459:0.018765692 6476:0.027092964 6492:0.032852336 6519:0.024502087 6652:0.28881904 6693:0.032852336 6796:0.018921659 6810:0.027106274 6854:0.027523803 6870:0.028365613 6936:0.17370099 6944:0.13044722 6958:0.025016995 7005:0.011594465 7095:0.067917441 7116:0.04131906 7131:0.026990867 7190:0.01937777 7202:0.02679278 7280:0.0072825358 7390:0.024949626 7438:0.017699324 7462:0.024625882 7517:0.017531976 7521:0.025085293 7623:0.032232587 7653:0.031121045 7658:0.018035421 7676:0.031949566 7741:0.069720014 
1 0.338020455329863 0.1838706238470951 33:0.1313746 73:0.061582087 208:0.050396568 243:0.091003689 274:0.27931324 347:0.066458376 538:0.11862013 565:0.14221419 625:0.14221419 774:0.06048631 775:0.086110241 842:0.1060195 1002:0.098536867 1032:0.10385233 1195:0.12374162 1215:0.11774399 1334:0.098230623 1391:0.068756637 1472:0.14564797 1618:0.10014756 1669:0.10899943 1711:0.11190265 1852:0.098848174 2533:0.12050506 2732:0.079796065 2938:0.046649915 3169:0.066856084 3459:0.13079846 3477:0.069940055 3525:0.23907804 3948:0.12032317 4042:0.079910556 4268:0.081717079 4485:0.07636229 4499:0.05306957 4569:0.14564797 4633:0.077846019 4727:0.049946718 4732:0.29129593 4856:0.076173006 4864:0.089996303 4941:0.054834254 4950:0.20430668 5060:0.052444894 5130:0.4495517 5158:0.055703175 5193:0.068662607 5218:0.12374162 5415:0.11774399 5450:0.053014421 5463:0.037198874 5564:0.11320203 5821:0.031140804 5845:0.066290467 5899:0.10846887 6017:0.1262565 6106:0.077642026 6107:0.072976134 6610:0.10696138 6658:0.056023482 6960:0.17697425 7719:0.11862013 
0 0.08727673354251379 0.7105042279852668 62:0.015372056 102:0.029418776 208:0.012200169 236:0.43050872 256:0.020693864 296:0.020656644 309:0.036052877 373:0.036926138 374:0.0124261 456:0.032579046 469:0.045122454 514:0.026133586 645:0.051787134 658:0.058837552 687:0.023929496 699:0.18529603 866:0.025042864 870:0.021786605 966:0.048819733 1014:0.022851727 1067:0.013903241 1104:0.028503857 1113:0.023635245 1150:0.025893567 1224:0.01171632 1262:0.023779997 1310:0.018771087 1357:0.37950813 1384:0.023707046 1665:0.012702507 1682:0.029418776 1688:0.032579046 1697:0.017459457 1726:0.029147739 1823:0.022505284 1831:0.025778135 1881:0.011864775 1920:0.028301188 2011:0.014662594 2029:0.027570137 2115:0.025778135 2140:0.029955785 2179:0.033724866 2208:0.023707046 2354:0.023854134 2409:0.0193729 2472:0.018626335 2525:0.014960829 2610:0.083226619 2663:0.017244016 2686:0.025555686 2708:0.039263715 2757:0.023098236 2776:0.035839017 2791:0.042584018 2818:0.62907149 2899:0.044567312 2938:0.011293167 2963:0.017459457 2978:0.054488667 3068:0.052773891 3127:0.020132008 3142:0.036276325 3168:0.084938761 3169:0.016184744 3203:0.030250036 3235:0.031444959 3237:0.017882988 3279:0.078035991 3280:0.045946631 3288:0.019101432 3303:0.019208087 3387:0.017685584 3410:0.016456808 3478:0.015798469 3486:0.014992824 3566:0.026795515 3667:0.020232217 3707:0.027404325 3858:0.029955785 3867:0.053156666 3895:0.053880534 4011:0.058837552 4018:0.031419873 4051:0.13783989 4058:0.012499837 4093:0.019317298 4145:0.046584557 4218:0.018239529 4267:0.015709936 4280:0.026133586 4386:0.035258945 4462:0.046453351 4470:0.072490073 4485:0.036972076 4505:0.013326144 4548:0.036276325 4568:0.020165167 4579:0.036276325 4605:0.070511969 4628:0.031267416 4633:0.037690448 4693:0.083763077 4709:0.030902476 4742:0.017122889 4751:0.019514946 4815:0.062537563 4840:0.027404325 4867:0.013937077 4906:0.034427686 4932:0.026133586 5025:0.073767353 5070:0.021931357 5110:0.018327634 5149:0.030651536 5163:0.025555686 5171:0.014118953 5183:0.021249596 5214:0.017666306 5223:0.060186613 5250:0.032015057 5255:0.016354675 5258:0.028107146 5292:0.033116055 5348:0.014929056 5427:0.022395416 5469:0.028252999 5562:0.021378036 5581:0.024006125 5589:0.043668694 5713:0.022450019 5734:0.064408382 5747:0.024326207 5821:0.015077339 5875:0.024670469 5876:0.019813046 6105:0.094828186 6198:0.031856008 6200:0.016020919 6204:0.015325768 6424:0.018026438 6458:0.071121139 6459:0.017279224 6565:0.016793554 6570:0.028011021 6575:0.019317298 6730:0.034427686 6785:0.097737139 6806:0.023779997 6810:0.0083197104 6867:0.049163873 6874:0.018463069 6936:0.015994178 6942:0.017332549 6967:0.052323328 7046:0.02872798 7050:0.019875078 7109:0.033116055 7237:0.054179532 7280:0.033528357 7285:0.035645728 7334:0.015454207 7346:0.021600485 7415:0.017279224 7433:0.033943476 7441:0.016311595 7541:0.041769315 7543:0.058425634 7598:0.016102096 7619:0.019208087 7661:0.029108771 7671:0.034427686 7687:0.094772653 7701:0.049163873 7757:0.027742206 
0.7374213187534276 0 0.5063654679492793 92:0.074990093 349:0.10516481 373:0.10894237 411:0.092040281 1002:0.14075265 1137:0.16474958 1296:0.1189857 1357:0.24881211 1370:0.089040449 1391:0.22916551 1457:0.080303718 1550:0.086753446 1743:0.12145177 1837:0.13749934 2250:0.060582412 2439:0.072228446 3215:0.07743199 3466:0.084103316 3867:0.078413472 3898:0.13603471 3957:0.08315372 4044:0.41349041 4045:0.064845425 4073:0.36899028 4162:0.21550478 4638:0.11636812 4672:0.10291224 4898:0.05743617 5171:0.083309676 5450:0.075727192 5836:0.11414634 6106:0.14787455 6144:0.09684439 6200:0.094532329 6230:0.18683596 6636:0.10636601 6989:0.10367937 7280:0.11870157 7342:0.29009419 7553:0.10880752 7581:0.11302189 7630:0.10248351 7631:0.10673708 7642:0.14954126 7653:0.056361883 
0 0.02137894606273216 0.007926194453309993 73:0.10051366 103:0.21081318 126:0.11301311 371:0.091440959 1111:0.18264636 1375:0.10810781 1391:0.11222389 1519:0.46792566 1649:0.23212056 1687:0.24458457 1801:0.10550117 1837:0.10474232 2162:0.20196982 2946:0.24458457 3288:0.12878691 3530:0.10792699 3581:0.29774994 4045:0.074095559 4261:0.11442794 4372:0.12356975 4505:0.089848386 4720:0.12153901 4841:0.11217374 4898:0.065629382 5288:0.21965654 5463:0.060715625 5469:0.063496396 5768:0.090099737 5821:0.050827704 6106:0.12672653 6510:0.17537976 6657:0.059498039 6974:0.20196982 7280:0.090422819 7466:0.18066245 7712:0.094603678 7725:0.11510358 
0.3477973671241771 0 0 238:0.21052706 441:0.10532362 774:0.11624412 1098:0.49644482 1244:0.10772948 1336:0.17489319 1391:0.044046081 1656:0.20746651 1726:0.11569748 1743:0.16340296 1837:0.061664529 3477:0.067206283 3486:0.11902343 3578:0.25863504 3898:0.09151153 4045:0.087243967 4085:0.17006003 4162:0.28994323 4471:0.15982183 4568:0.16008507 5206:0.084262719 5520:0.085655003 5687:0.12422256 5821:0.17954155 6060:0.24264294 6106:0.049738136 6636:0.14310636 6660:0.12718516 6715:0.14377357 7005:0.084753838 7280:0.053234266 7325:0.12613595 7581:0.15206128 7630:0.13788279 7631:0.14360561 7725:0.13552894 
0.2093930044223755 0.4292357848566509 0 92:0.019210066 117:0.022408067 149:0.037708049 192:0.19271692 373:0.027907555 410:0.044467478 427:0.045279186 485:0.037853139 595:0.026198737 598:0.048518237 655:0.058995005 682:0.097036474 684:0.030894988 829:0.054832897 854:0.039690623 918:0.052038615 969:0.044094872 970:0.032183594 976:0.029948091 978:0.38634849 979:0.12501959 982:0.033375964 1009:0.091447912 1034:0.046199423 1047:0.10966579 1067:0.021015221 1069:0.033076284 1093:0.082361469 1129:0.022925986 1160:0.1242286 1161:0.033003357 1176:0.25159972 1211:0.060369874 1244:0.020511785 1245:0.053295093 1246:0.067061673 1271:0.23276614 1277:0.03800135 1314:0.026118133 1326:0.029994813 1355:0.021381461 1370:0.022809318 1400:0.033452965 1413:0.021435407 1447:0.038628287 1498:0.029367877 1550:0.022223461 1697:0.026390561 1698:0.032789095 1726:0.044057797 1801:0.023652082 1837:0.035222938 1864:0.033249572 1886:0.040721128 1909:0.072572144 1940:0.026761624 1991:0.018718279 2011:0.044326017 2046:0.035834005 2077:0.04726176 2106:0.02577935 2115:0.038964526 2146:0.22293859 2209:0.016043694 2250:0.062077114 2272:0.040084533 2415:0.036403879 2452:0.031167417 2474:0.069126482 2525:0.0452276 2539:0.027635932 2658:0.043084547 2668:0.044094872 2756:0.038794356 2758:0.08100466 2765:0.054832897 2776:0.018057297 2841:0.043084547 2855:0.025384027 2863:0.040721128 2887:0.016885653 2899:0.022455002 2915:0.077929052 2947:0.047861403 2963:0.026390561 3021:0.0409471 3168:0.012838782 3180:0.076305638 3181:0.054832897 3184:0.050976279 3186:0.054832897 3235:0.023765061 3237:0.081092229 3247:0.092398847 3280:0.034724946 3326:0.035618627 3387:0.026732361 3414:0.012225217 3477:0.038388401 3575:0.023746102 3612:0.077568196 3626:0.034541161 3644:0.050976279 3658:0.032931193 3686:0.036523735 3835:0.082361469 3867:0.020087026 3871:0.020964454 4018:0.023746102 4043:0.045723956 4058:0.037787857 4066:0.037290251 4079:0.051558699 4102:0.047861403 4108:0.043741382 4109:0.059711171 4116:0.033933966 4165:0.033149991 4176:0.0161184 4199:0.022597755 4218:0.055139334 4234:0.057121855 4267:0.023746102 4383:0.022776344 4387:0.046199423 4485:0.027942274 4505:0.020142919 4577:0.040721128 4652:0.033933966 4727:0.036552724 4742:0.12940914 4774:0.053295093 4838:0.027000317 4867:0.084265457 4898:0.029426624 4927:0.046710142 4933:0.044861388 4950:0.024919775 4967:0.047530122 4986:0.10011208 5006:0.053523249 5018:0.031868857 5025:0.011150186 5052:0.035593801 5060:0.038380975 5070:0.033149991 5076:0.023010545 5092:0.043405142 5106:0.060466598 5116:0.054832897 5149:0.023165418 5159:0.033530836 5164:0.038466125 5220:0.038964526 5285:0.055677279 5348:0.022565775 5400:0.022439321 5404:0.027247573 5449:0.02498745 5463:0.027223414 5469:0.056940489 5496:0.027977168 5589:0.033003357 5604:0.039690623 5642:0.054832897 5748:0.035944272 5768:0.020199269 5807:0.021195909 5814:0.09452352 5821:0.02278991 5832:0.11126944 5845:0.024256821 5860:0.1637884 5947:0.0409471 5988:0.03756595 6053:0.042484904 6083:0.052038615 6093:0.045279186 6098:0.048271117 6111:0.039139005 6135:0.023027583 6138:0.029809794 6146:0.029764305 6168:0.028226501 6198:0.096302874 6200:0.024216162 6329:0.03756595 6359:0.021613706 6360:0.037426722 6394:0.27719654 6398:0.043084547 6481:0.086169094 6556:0.027838639 6623:0.03410206 6657:0.013338739 6660:0.09686465 6685:0.042778206 6704:0.027907555 6740:0.035725475 6741:0.038794356 6810:0.050302098 6814:0.050976279 6831:0.037290251 6833:0.030632921 6839:0.053295093 6878:0.019500385 6967:0.052725657 7005:0.016137203 7024:0.046199423 7046:0.021711658 7051:0.020876503 7094:0.034541161 7197:0.033224495 7215:0.037156431 7280:0.1013585 7290:0.04726176 7304:0.042778206 7317:0.035207069 7321:0.050056041 7325:0.096065574 7334:0.023359559 7335:0.053295093 7361:0.041673197 7411:0.040721128 7415:0.026118133 7433:0.051306716 7439:0.02760272 7456:0.092053629 7517:0.024401044 7543:0.070649863 7554:0.027536772 7613:0.060178439 7628:0.039501802 7661:0.043998895 7683:0.044094872 7687:0.1227875 7764:0.052038615 
1 0 1 92:0.04784246 117:0.055807048 208:0.045927036 371:0.10210983 445:0.050618904 539:0.084720215 743:0.1191983 1278:0.20283105 1391:0.2506352 1498:0.073140379 1550:0.22138915 1837:0.029240781 2151:0.09355759 2250:0.038650594 2439:0.046080574 2679:0.071709274 2887:0.084107069 2899:0.055923938 3030:0.068256185 3139:0.16128196 3168:0.031974847 3333:0.057307513 3371:0.042530569 3389:0.078184895 3390:0.082932823 3391:0.086952359 3454:0.05243362 3457:0.052055002 3477:0.031868632 3512:0.051992703 3854:0.10141553 3898:0.043393968 4045:0.041370327 4163:0.10197831 4176:0.040142699 4261:0.06388941 4332:0.12457505 4519:0.066576654 4898:0.036643343 4941:0.09994231 4964:0.061458216 5060:0.047793701 5093:0.075662193 5206:0.07991329 5250:0.060259683 5412:0.071611477 5427:0.50583973 5463:0.067799618 5469:0.035452417 5589:0.082194501 5821:0.085137036 5950:0.060411348 6044:0.12466403 6085:0.10100896 6106:0.14151234 6146:0.14825536 6164:0.13525253 6168:0.14059559 6198:0.059960315 6277:0.38086761 6431:0.042765069 6518:0.054973345 6636:0.067859785 6657:0.066439969 6810:0.15659604 6870:0.098322829 6878:0.097130992 6960:0.053759632 7051:0.051992703 7280:0.075729672 7543:0.087976358 7553:0.069417432 7653:0.035957965 
0 0 0.03039542685369069 440:0.077728354 705:0.40693836 735:0.1439612 1051:0.41868037 1159:0.34573235 1665:0.073302493 1725:0.072492877 1743:0.11877915 1837:0.044824528 2149:0.082944293 2679:0.10992642 2887:0.064465783 3215:0.075728053 3512:0.079701988 4162:0.31614371 4176:0.061536576 4519:0.10205839 4898:0.11234451 6636:0.10402536 6652:0.080772061 6657:0.050924431 6845:0.18043521 6892:0.11380737 7159:0.10002113 7280:0.11608947 7325:0.091689415 7581:0.11053478 7630:0.2004566 7631:0.41755309 
0 0 0.04536881986953135 89:0.194184 641:0.3550102 1457:0.15971939 2535:0.18081537 3168:0.099682946 3414:0.1898382 3988:0.69050931 5025:0.086572337 5469:0.11052442 5832:0.17278376 5845:0.18833495 5995:0.24791625 6621:0.27822259 7543:0.13713502 7653:0.11210049 
0.04816748148023716 0 0 307:0.22559298 358:0.15001277 684:0.18119039 1391:0.049183939 1491:0.22114707 1492:0.26815811 1991:0.10977743 2022:0.15349001 2316:0.31256069 2789:0.37526023 3168:0.075295836 3280:0.20365202 3477:0.075045716 3867:0.11780474 4079:0.15118862 4176:0.094529869 4300:0.27394181 4301:0.23058908 4452:0.32157948 4898:0.17257885 5025:0.065392695 5206:0.18818348 5485:0.17875856 5821:0.066828198 6431:0.10070515 6835:0.16469842 6965:0.15224632 
1 1 1 2011:0.29606587 4566:0.80517147 5164:0.51385202 
0.5320754755375197 1 0 40:0.043593361 62:0.045671619 82:0.05485527 238:0.078790415 348:0.10910661 979:0.081913104 1007:0.07693188 1257:0.061046133 1274:0.06843988 1310:0.055770417 1346:0.067369898 1355:0.042027538 1391:0.032968769 1406:0.055990683 1411:0.067542462 1429:0.055130327 1490:0.077283745 1500:0.063134268 1623:0.06843988 1626:0.095367758 1632:0.098390476 1635:0.089875301 1698:0.064450455 1726:0.043300144 1745:0.085317426 1911:0.090809883 1991:0.14717108 2115:0.076588923 2253:0.21003661 2273:0.073034919 2396:0.052149354 2410:0.055340347 2473:0.085978341 2795:0.083508601 2938:0.10065874 3118:0.041637134 3168:0.050471985 3351:0.040840077 3410:0.097789014 3414:0.072089896 3421:0.085978341 3477:0.050304325 3486:0.044544891 3608:0.071555698 3609:0.086673163 3612:0.1016457 3871:0.041207866 4018:0.093350982 4045:0.032651329 4058:0.074276054 4079:0.050672055 4140:0.074119183 4145:0.20760972 4153:0.21466709 4348:0.041843948 4395:0.05374485 4471:0.059813823 4505:0.039593051 4568:0.11982468 4605:0.10474838 4633:0.055990683 4686:0.10475718 4727:0.035924135 4742:0.10174697 4754:0.073566205 4838:0.053071996 4873:0.073839873 4937:0.058416083 4941:0.11831847 5025:0.06575063 5040:0.10777989 5052:0.10494511 5060:0.037720946 5066:0.09407668 5171:0.041948552 5258:0.083508601 5404:0.053558005 5469:0.055961295 5496:0.1099842 5701:0.039882937 5821:0.044795994 6106:0.018614654 6135:0.22631582 6198:0.047323387 6200:0.047599444 6431:0.033752123 6449:0.21555979 6458:0.070435551 6491:0.06137256 6745:0.041232744 6810:0.14831119 7046:0.08535315 7107:0.12703175 7208:0.10475718 7349:0.5010516 7397:0.044964708 7653:0.028379649 7687:0.040225316 7716:0.082955623 
0 0.4328047627468314 0.09230864592932028 495:0.257494 1094:0.21600343 1391:0.039210309 1837:0.054894446 1940:0.12512283 2273:0.1737233 2533:0.20616369 2759:0.19038989 2776:0.08442612 2938:0.07981008 3055:0.2097475 3168:0.060027176 3887:0.23023978 4167:0.19732102 4742:0.12100938 4898:0.06879146 4964:0.11537704 5149:0.10830892 5164:0.17984672 5589:0.15430578 5734:0.11379532 5821:0.10655325 6085:0.18962664 6106:0.044277439 6135:0.10766448 6146:0.13916174 6431:0.16056786 6513:0.44195998 6636:0.12739486 6810:0.058796328 6863:0.15265306 6942:0.24498214 7005:0.075448804 7181:0.23403488 7280:0.047389733 7344:0.13214183 7543:0.082580104 
0.9087321308323021 0 0 73:0.025582034 137:0.035134934 274:0.023206101 468:0.043669307 469:0.038714931 544:0.032381161 701:0.24201656 1026:0.030023674 1173:0.042334377 1179:0.41166174 1286:0.056826952 1317:0.073050864 1349:0.032777943 1355:0.024273659 1391:0.047604065 1413:0.048669804 1464:0.023087257 1769:0.029866249 1839:0.035771361 1899:0.053654698 1991:0.12750143 2060:0.035013633 2156:0.0645065 2251:0.045980943 2370:0.064089209 2482:0.034433832 2694:0.45461562 2757:0.039636435 2791:0.21922176 2887:0.019169718 3311:0.026958157 3371:0.01938717 3414:0.013878881 3454:0.047802769 3477:0.014527023 3484:0.051381901 3527:0.038618932 3695:0.026767066 3708:0.061513289 3714:0.029180301 3905:0.055883402 4037:0.17541362 4254:0.053654698 4499:0.11022909 4727:0.12449126 4898:0.016703532 5001:0.042489308 5023:0.15144733 5025:0.063292168 5052:0.020204227 5060:0.08714528 5110:0.03145011 5120:0.19710563 5158:0.023139854 5171:0.02422804 5193:0.028523378 5321:0.050482444 5348:0.025618171 5449:0.14183709 5463:0.015452917 5520:0.01851482 5569:0.035705338 5876:0.27199254 5967:0.045059439 6070:0.06727502 6200:0.027491801 6339:0.30550216 6657:0.045429075 6658:0.046545828 6818:0.033946382 6874:0.12673006 6878:0.066414406 6889:0.041062871 7005:0.073280113 7046:0.024648521 7156:0.056826952 7443:0.032823298 7510:0.20561579 7627:0.035134934 7629:0.043853404 7658:0.11398867 7681:0.060504139 
